{"learner":{"attributes":{"scikit_learn":"{\"_estimator_type\": \"regressor\"}"},"feature_names":["LotArea","GrLivArea","YearBuilt","TotalBsmtSF","GarageArea","LotAreaSqrd","GrLivAreaSqrd","OverallQuality","OverallCondition","FullBath","HalfBath","GarageCars","Street_Grvl","Street_Pave","LotType_Corner","LotType_CulDSac","LotType_FR2","LotType_FR3","LotType_Inside","BldgType_1Fam","BldgType_2fmCon","BldgType_Duplex","BldgType_Twnhs","BldgType_TwnhsE","HouseStyle_1.5Fin","HouseStyle_1.5Unf","HouseStyle_1Fam","HouseStyle_1Story","HouseStyle_2.5Fin","HouseStyle_2.5Unf","HouseStyle_2Story","HouseStyle_SFoyer","HouseStyle_SLvl","Foundation_BrkTil","Foundation_CBlock","Foundation_PConc","Foundation_Slab","Foundation_Stone","Foundation_Unknown","Foundation_Wood","CentralAir_N","CentralAir_Y","GarageType_2Types","GarageType_Attchd","GarageType_Basment","GarageType_BuiltIn","GarageType_CarPort","GarageType_Detchd","SaleType_COD","SaleType_CWD","SaleType_Con","SaleType_ConLD","SaleType_ConLI","SaleType_ConLw","SaleType_New","SaleType_Oth","SaleType_WD","SaleCondition_Abnorml","SaleCondition_AdjLand","SaleCondition_Alloca","SaleCondition_Family","SaleCondition_Normal","SaleCondition_Partial"],"feature_types":["float","float","float","float","float","float","float","float","float","float","float","float","float","float","float","float","float","float","float","float","float","float","float","float","float","float","float","float","float","float","float","float","float","float","float","float","float","float","float","float","float","float","float","float","float","float","float","float","float","float","float","float","float","float","float","float","float","float","float","float","float","float","float"],"gradient_booster":{"model":{"gbtree_model_param":{"num_parallel_tree":"1","num_trees":"800"},"iteration_indptr":[0,1,2,3,4,5,6,7,8,9,10,11,12,13,14,15,16,17,18,19,20,21,22,23,24,25,26,27,28,29,30,31,32,33,34,35,36,37,38,39,40,41,42,43,44,45,46,47,48,49,50,51,52,53,54,55,56,57,58,59,60,61,62,63,64,65,66,67,68,69,70,71,72,73,74,75,76,77,78,79,80,81,82,83,84,85,86,87,88,89,90,91,92,93,94,95,96,97,98,99,100,101,102,103,104,105,106,107,108,109,110,111,112,113,114,115,116,117,118,119,120,121,122,123,124,125,126,127,128,129,130,131,132,133,134,135,136,137,138,139,140,141,142,143,144,145,146,147,148,149,150,151,152,153,154,155,156,157,158,159,160,161,162,163,164,165,166,167,168,169,170,171,172,173,174,175,176,177,178,179,180,181,182,183,184,185,186,187,188,189,190,191,192,193,194,195,196,197,198,199,200,201,202,203,204,205,206,207,208,209,210,211,212,213,214,215,216,217,218,219,220,221,222,223,224,225,226,227,228,229,230,231,232,233,234,235,236,237,238,239,240,241,242,243,244,245,246,247,248,249,250,251,252,253,254,255,256,257,258,259,260,261,262,263,264,265,266,267,268,269,270,271,272,273,274,275,276,277,278,279,280,281,282,283,284,285,286,287,288,289,290,291,292,293,294,295,296,297,298,299,300,301,302,303,304,305,306,307,308,309,310,311,312,313,314,315,316,317,318,319,320,321,322,323,324,325,326,327,328,329,330,331,332,333,334,335,336,337,338,339,340,341,342,343,344,345,346,347,348,349,350,351,352,353,354,355,356,357,358,359,360,361,362,363,364,365,366,367,368,369,370,371,372,373,374,375,376,377,378,379,380,381,382,383,384,385,386,387,388,389,390,391,392,393,394,395,396,397,398,399,400,401,402,403,404,405,406,407,408,409,410,411,412,413,414,415,416,417,418,419,420,421,422,423,424,425,426,427,428,429,430,431,432,433,434,435,436,437,438,439,440,441,442,443,444,445,446,447,448,449,450,451,452,453,454,455,456,457,458,459,460,461,462,463,464,465,466,467,468,469,470,471,472,473,474,475,476,477,478,479,480,481,482,483,484,485,486,487,488,489,490,491,492,493,494,495,496,497,498,499,500,501,502,503,504,505,506,507,508,509,510,511,512,513,514,515,516,517,518,519,520,521,522,523,524,525,526,527,528,529,530,531,532,533,534,535,536,537,538,539,540,541,542,543,544,545,546,547,548,549,550,551,552,553,554,555,556,557,558,559,560,561,562,563,564,565,566,567,568,569,570,571,572,573,574,575,576,577,578,579,580,581,582,583,584,585,586,587,588,589,590,591,592,593,594,595,596,597,598,599,600,601,602,603,604,605,606,607,608,609,610,611,612,613,614,615,616,617,618,619,620,621,622,623,624,625,626,627,628,629,630,631,632,633,634,635,636,637,638,639,640,641,642,643,644,645,646,647,648,649,650,651,652,653,654,655,656,657,658,659,660,661,662,663,664,665,666,667,668,669,670,671,672,673,674,675,676,677,678,679,680,681,682,683,684,685,686,687,688,689,690,691,692,693,694,695,696,697,698,699,700,701,702,703,704,705,706,707,708,709,710,711,712,713,714,715,716,717,718,719,720,721,722,723,724,725,726,727,728,729,730,731,732,733,734,735,736,737,738,739,740,741,742,743,744,745,746,747,748,749,750,751,752,753,754,755,756,757,758,759,760,761,762,763,764,765,766,767,768,769,770,771,772,773,774,775,776,777,778,779,780,781,782,783,784,785,786,787,788,789,790,791,792,793,794,795,796,797,798,799,800],"tree_info":[0,0,0,0,0,0,0,0,0,0,0,0,0,0,0,0,0,0,0,0,0,0,0,0,0,0,0,0,0,0,0,0,0,0,0,0,0,0,0,0,0,0,0,0,0,0,0,0,0,0,0,0,0,0,0,0,0,0,0,0,0,0,0,0,0,0,0,0,0,0,0,0,0,0,0,0,0,0,0,0,0,0,0,0,0,0,0,0,0,0,0,0,0,0,0,0,0,0,0,0,0,0,0,0,0,0,0,0,0,0,0,0,0,0,0,0,0,0,0,0,0,0,0,0,0,0,0,0,0,0,0,0,0,0,0,0,0,0,0,0,0,0,0,0,0,0,0,0,0,0,0,0,0,0,0,0,0,0,0,0,0,0,0,0,0,0,0,0,0,0,0,0,0,0,0,0,0,0,0,0,0,0,0,0,0,0,0,0,0,0,0,0,0,0,0,0,0,0,0,0,0,0,0,0,0,0,0,0,0,0,0,0,0,0,0,0,0,0,0,0,0,0,0,0,0,0,0,0,0,0,0,0,0,0,0,0,0,0,0,0,0,0,0,0,0,0,0,0,0,0,0,0,0,0,0,0,0,0,0,0,0,0,0,0,0,0,0,0,0,0,0,0,0,0,0,0,0,0,0,0,0,0,0,0,0,0,0,0,0,0,0,0,0,0,0,0,0,0,0,0,0,0,0,0,0,0,0,0,0,0,0,0,0,0,0,0,0,0,0,0,0,0,0,0,0,0,0,0,0,0,0,0,0,0,0,0,0,0,0,0,0,0,0,0,0,0,0,0,0,0,0,0,0,0,0,0,0,0,0,0,0,0,0,0,0,0,0,0,0,0,0,0,0,0,0,0,0,0,0,0,0,0,0,0,0,0,0,0,0,0,0,0,0,0,0,0,0,0,0,0,0,0,0,0,0,0,0,0,0,0,0,0,0,0,0,0,0,0,0,0,0,0,0,0,0,0,0,0,0,0,0,0,0,0,0,0,0,0,0,0,0,0,0,0,0,0,0,0,0,0,0,0,0,0,0,0,0,0,0,0,0,0,0,0,0,0,0,0,0,0,0,0,0,0,0,0,0,0,0,0,0,0,0,0,0,0,0,0,0,0,0,0,0,0,0,0,0,0,0,0,0,0,0,0,0,0,0,0,0,0,0,0,0,0,0,0,0,0,0,0,0,0,0,0,0,0,0,0,0,0,0,0,0,0,0,0,0,0,0,0,0,0,0,0,0,0,0,0,0,0,0,0,0,0,0,0,0,0,0,0,0,0,0,0,0,0,0,0,0,0,0,0,0,0,0,0,0,0,0,0,0,0,0,0,0,0,0,0,0,0,0,0,0,0,0,0,0,0,0,0,0,0,0,0,0,0,0,0,0,0,0,0,0,0,0,0,0,0,0,0,0,0,0,0,0,0,0,0,0,0,0,0,0,0,0,0,0,0,0,0,0,0,0,0,0,0,0,0,0,0,0,0,0,0,0,0,0,0,0,0,0,0,0,0,0,0,0,0,0,0,0,0,0,0,0,0,0,0,0,0,0,0,0,0,0,0,0,0,0,0,0,0,0,0,0,0,0,0,0,0,0,0,0,0,0,0,0,0,0,0,0,0,0,0,0,0,0,0,0,0,0,0,0,0,0,0,0,0,0,0,0,0,0,0,0,0,0,0,0,0,0,0,0,0,0,0,0,0,0,0,0,0,0,0,0,0,0,0,0,0,0,0,0,0,0,0,0,0,0,0,0,0,0,0,0,0,0,0,0,0,0,0,0,0,0,0,0,0,0,0,0,0,0,0,0,0,0,0,0,0],"trees":[{"base_weights":[-5.535591E2,-1.8717775E4,1.2305299E5,-4.884485E4,1.2401977E4,5.5139113E4,1.881702E5,-6.127531E4,-2.8772379E4,1.1145638E3,5.6028062E4,2.0432271E2,1.3946066E3,1.4663281E3,3.103681E3,-8.058436E4,-5.204718E4,-4.342955E4,-1.146012E4,-1.400116E4,2.6642113E4,4.103229E4,1.0741334E3,-1.1301354E3,-8.3032605E2,-5.558966E4,-4.61897E2,-5.1778348E4,-3.1816623E2,-3.0404828E2,-9.126026E2,-4.097952E4,-9.382286E1,1.1100068E4,5.5801996E4,2.0480783E1,8.4767944E2,-8.063936E2,-6.3247406E2,-8.076567E2,-4.3443893E2,-1.370129E2,1.22216034E2,-7.8013776E2,-2.7708523E4,-2.004273E2,5.89896E3,-2.0177612E3,3.4399167E2,4.9935117E2,9.306467E2,-4.4721338E2,-2.6788522E2,5.0614255E2,3.4087625E2,-2.7558926E2,2.0957909E2,-1.2523754E2,5.7864683E3,-6.322329E1,1.5964027E2],"categories":[],"categories_nodes":[],"categories_segments":[],"categories_sizes":[],"default_left":[0,0,0,0,0,0,0,0,0,0,0,0,0,0,0,0,0,0,0,0,0,0,0,0,0,0,0,0,0,0,0,0,0,0,0,0,0,0,0,0,0,0,0,0,0,0,0,0,0,0,0,0,0,0,0,0,0,0,0,0,0],"id":0,"left_children":[1,3,5,7,9,11,13,15,17,19,21,-1,-1,-1,-1,23,25,27,29,31,33,35,-1,-1,-1,37,-1,39,-1,-1,41,43,45,47,49,-1,-1,-1,-1,-1,-1,-1,-1,-1,51,-1,53,55,-1,-1,-1,-1,-1,57,-1,-1,-1,-1,59,-1,-1],"loss_changes":[1.5245599E12,5.556337E11,3.7436994E11,7.333944E10,1.4372584E11,8.749948E10,1.3657702E11,2.8770238E10,2.919089E10,9.028012E10,1.9937755E10,0E0,0E0,0E0,0E0,1.5649997E8,5.667848E9,8.822907E9,6.783242E9,5.5150125E10,3.8809367E10,3.7189943E10,0E0,0E0,0E0,1.554219E9,0E0,5.832409E9,0E0,0E0,3.0255245E9,1.0640974E10,9.012698E9,1.1568882E10,5.3637857E9,0E0,0E0,0E0,0E0,0E0,0E0,0E0,0E0,0E0,7.469179E8,0E0,7.6827167E9,1.1282043E10,0E0,0E0,0E0,0E0,0E0,3.0824914E9,0E0,0E0,0E0,0E0,2.6343316E9,0E0,0E0],"parents":[2147483647,0,0,1,1,2,2,3,3,4,4,5,5,6,6,7,7,8,8,9,9,10,10,15,15,16,16,17,17,18,18,19,19,20,20,21,21,25,25,27,27,30,30,31,31,32,32,33,33,34,34,44,44,46,46,47,47,53,53,58,58],"right_children":[2,4,6,8,10,12,14,16,18,20,22,-1,-1,-1,-1,24,26,28,30,32,34,36,-1,-1,-1,38,-1,40,-1,-1,42,44,46,48,50,-1,-1,-1,-1,-1,-1,-1,-1,-1,52,-1,54,56,-1,-1,-1,-1,-1,58,-1,-1,-1,-1,60,-1,-1],"split_conditions":[1.8022696E0,7.716101E-1,3.3671004E-1,-3.1354314E-1,7.834733E-1,1.239649E0,7.5610274E-1,-6.443568E-1,2.09788E-1,1.4172477E-1,1.3265568E-1,2.0432271E2,1.3946066E3,1.4663281E3,3.103681E3,-4.8948333E-1,1.4161603E-1,-7.412222E-1,-4.904743E-2,2.4348198E-1,-1.1291203E-1,5.4907984E-1,1.0741334E3,-1.1301354E3,-8.3032605E2,7.63504E-1,-4.61897E2,1.3100643E0,-3.1816623E2,-3.0404828E2,-1.530204E-1,-6.694464E-1,-7.036596E-1,2.4348198E-1,4.5914263E-1,2.0480783E1,8.4767944E2,-8.063936E2,-6.3247406E2,-8.076567E2,-4.3443893E2,-1.370129E2,1.22216034E2,-7.8013776E2,1.2536297E-2,-2.004273E2,1.1263202E0,1.3368117E-2,3.4399167E2,4.9935117E2,9.306467E2,-4.4721338E2,-2.6788522E2,-4.6398634E-1,3.4087625E2,-2.7558926E2,2.0957909E2,-1.2523754E2,-2.0017962E-1,-6.322329E1,1.5964027E2],"split_indices":[11,9,1,1,3,3,3,3,11,1,1,0,0,0,0,1,2,2,3,2,3,2,0,0,0,43,0,8,0,0,1,3,3,2,1,0,0,0,0,0,0,0,0,0,3,0,2,0,0,0,0,0,0,4,0,0,0,0,1,0,0],"split_type":[0,0,0,0,0,0,0,0,0,0,0,0,0,0,0,0,0,0,0,0,0,0,0,0,0,0,0,0,0,0,0,0,0,0,0,0,0,0,0,0,0,0,0,0,0,0,0,0,0,0,0,0,0,0,0,0,0,0,0,0,0],"sum_hessian":[6.77E2,5.91E2,8.6E1,3E2,2.91E2,4.3E1,4.3E1,1.84E2,1.16E2,2.32E2,5.9E1,2.5E1,1.8E1,1.8E1,2.5E1,5.7E1,1.27E2,6.2E1,5.4E1,1.46E2,8.6E1,3.9E1,2E1,4E1,1.7E1,1.03E2,2.4E1,4.2E1,2E1,2.5E1,2.9E1,4.9E1,9.7E1,5.7E1,2.9E1,1.5E1,2.4E1,5.3E1,5E1,2.6E1,1.6E1,1.5E1,1.4E1,1.9E1,3E1,2.7E1,7E1,3.1E1,2.6E1,1.5E1,1.4E1,1.4E1,1.6E1,5.6E1,1.4E1,1.5E1,1.6E1,1.9E1,3.7E1,1.4E1,2.3E1],"tree_param":{"num_deleted":"0","num_feature":"63","num_nodes":"61","size_leaf_vector":"1"}},{"base_weights":[-7.2861725E2,-2.2807598E4,1.28108234E5,-4.0090758E4,2.234798E4,7.741121E4,1.8686616E5,-6.2934477E4,-2.6963424E4,3.897285E3,4.6638516E4,3.5448474E2,9.318359E4,1.8064036E3,3.3867651E3,-1.0071804E3,-5.365114E4,-4.3757617E4,-1.3741419E4,-2.9960834E2,1.1691464E4,2.8536115E4,6.394825E4,9.5112976E2,1.5797418E3,-1.0324886E3,-4.8530996E4,-4.9445844E4,-2.0525285E2,-4.019938E4,-5.8215176E3,-1.5902734E3,2.335274E4,1.6910541E2,6.327003E2,6.600574E2,1.0201939E3,-5.2643973E4,-4.2923242E2,-9.562751E2,-4.4500914E4,-6.614083E2,-3.3802356E2,-1.0406943E4,3.3050455E2,-1.7230307E2,9.553437E1,1.6308311E2,5.106522E2,-7.312403E2,-5.314517E2,-6.5773E2,-3.436334E4,-1.8375256E4,-3.094822E3,-5.5601764E2,-2.798955E2,-3.3260016E2,-1.3228062E2,-9.707582E3,1.395269E2,-2.2221898E2,-5.8684475E1],"categories":[],"categories_nodes":[],"categories_segments":[],"categories_sizes":[],"default_left":[0,0,0,0,0,0,0,0,0,0,0,0,0,0,0,0,0,0,0,0,0,0,0,0,0,0,0,0,0,0,0,0,0,0,0,0,0,0,0,0,0,0,0,0,0,0,0,0,0,0,0,0,0,0,0,0,0,0,0,0,0,0,0],"id":1,"left_children":[1,3,5,7,9,11,13,15,17,19,21,-1,23,-1,-1,-1,25,27,29,-1,31,33,35,-1,-1,-1,37,39,-1,41,43,45,47,-1,-1,-1,-1,49,-1,-1,51,-1,-1,53,-1,-1,-1,-1,-1,-1,-1,-1,55,57,59,-1,-1,-1,-1,61,-1,-1,-1],"loss_changes":[2.0026663E12,4.6993496E11,2.923561E11,1.287496E11,7.466385E10,4.276899E10,1.2925102E11,1.6241066E10,6.112941E10,2.0281274E10,2.0736197E10,0E0,1.5492841E10,0E0,0E0,0E0,8.77088E9,1.8728501E10,3.266445E10,0E0,1.165329E10,1.0787856E10,2.8724265E9,0E0,0E0,0E0,3.73316E9,8.485454E9,0E0,4.017746E9,1.7620566E10,3.7870223E9,6.323751E9,0E0,0E0,0E0,0E0,2.011136E8,0E0,0E0,3.2139837E9,0E0,0E0,6.1775155E9,0E0,0E0,0E0,0E0,0E0,0E0,0E0,0E0,2.6544005E9,2.6988728E9,5.280946E9,0E0,0E0,0E0,0E0,1.401566E9,0E0,0E0,0E0],"parents":[2147483647,0,0,1,1,2,2,3,3,4,4,5,5,6,6,7,7,8,8,9,9,10,10,12,12,16,16,17,17,18,18,20,20,21,21,22,22,26,26,27,27,29,29,30,30,31,31,32,32,37,37,40,40,43,43,52,52,53,53,54,54,59,59],"right_children":[2,4,6,8,10,12,14,16,18,20,22,-1,24,-1,-1,-1,26,28,30,-1,32,34,36,-1,-1,-1,38,40,-1,42,44,46,48,-1,-1,-1,-1,50,-1,-1,52,-1,-1,54,-1,-1,-1,-1,-1,-1,-1,-1,56,58,60,-1,-1,-1,-1,62,-1,-1,-1],"split_conditions":[1.363683E0,6.167045E-1,3.6801118E-3,-1.1616099E-1,-3.5977036E-2,-6.247139E-2,2.1106615E0,-6.054009E-1,-1.3027394E-1,7.63504E-1,3.5077953E-1,3.5448474E2,1.1602755E0,1.8064036E3,3.3867651E3,-1.0071804E3,-6.074391E-1,2.3302795E-1,2.09788E-1,-2.9960834E2,-7.426977E-2,1.0796937E-2,9.4971335E-1,9.5112976E2,1.5797418E3,-1.0324886E3,-1.2488855E-1,-5.313307E-1,-2.0525285E2,-1.04682E0,8.346801E-3,9.9049896E-1,-5.5921853E-2,1.6910541E2,6.327003E2,6.600574E2,1.0201939E3,5.7947696E-3,-4.2923242E2,-9.562751E2,7.63504E-1,-6.614083E2,-3.3802356E2,-7.3568635E-2,3.3050455E2,-1.7230307E2,9.553437E1,1.6308311E2,5.106522E2,-7.312403E2,-5.314517E2,-6.5773E2,-9.380423E-2,2.0952666E-1,2.1635706E-2,-5.5601764E2,-2.798955E2,-3.3260016E2,-1.3228062E2,1.4161603E-1,1.395269E2,-2.2221898E2,-5.8684475E1],"split_indices":[7,7,6,6,6,6,7,2,7,43,4,0,2,0,0,0,0,0,11,0,6,6,4,0,0,0,6,8,0,2,6,2,0,0,0,0,0,2,0,0,43,0,0,6,0,0,0,0,0,0,0,0,0,2,4,0,0,0,0,2,0,0,0],"split_type":[0,0,0,0,0,0,0,0,0,0,0,0,0,0,0,0,0,0,0,0,0,0,0,0,0,0,0,0,0,0,0,0,0,0,0,0,0,0,0,0,0,0,0,0,0,0,0,0,0,0,0,0,0,0,0,0,0,0,0,0,0,0,0],"sum_hessian":[7.02E2,6E2,1.02E2,4.34E2,1.66E2,5.6E1,4.6E1,1.57E2,2.77E2,9.5E1,7.1E1,1.4E1,4.2E1,2.9E1,1.7E1,6E1,9.7E1,1.21E2,1.56E2,2.1E1,7.4E1,3.6E1,3.5E1,2.6E1,1.6E1,1.4E1,8.3E1,1E2,2.1E1,3.5E1,1.21E2,3.5E1,3.9E1,2.1E1,1.5E1,2E1,1.5E1,6.4E1,1.9E1,1.5E1,8.5E1,1.9E1,1.6E1,1.06E2,1.5E1,1.5E1,2E1,2.4E1,1.5E1,4.8E1,1.6E1,5.2E1,3.3E1,5E1,5.6E1,1.9E1,1.4E1,2.6E1,2.4E1,3.8E1,1.8E1,1.5E1,2.3E1],"tree_param":{"num_deleted":"0","num_feature":"63","num_nodes":"63","size_leaf_vector":"1"}},{"base_weights":[6.2055717E1,-2.4448742E4,1.1998214E5,-3.9792504E4,2.0626697E4,6.0161586E4,1.53384E5,-5.301094E4,-1.7918318E4,1.7788204E3,4.840588E4,2.0448763E2,1.0460931E3,1.2101584E5,2.7825198E3,-6.5111973E4,-3.6112867E4,-3.0156125E4,7.731861E1,-8.364355E3,4.4541766E2,2.6601195E4,1.00610834E3,1.2215629E3,1.8341522E3,-6.1112223E4,-1.197957E3,-4.2552887E4,-2.5615969E4,-4.2936723E4,-1.3581245E4,-1.4623222E4,1.1100791E4,-3.189346E2,-1.0276824E3,2.3295288E2,4.6453015E2,-6.708501E4,-5.113329E4,-4.5463742E4,-4.016333E2,-4.967809E2,-1.9826346E2,-7.0931885E2,-2.1457936E2,-3.2855112E2,-6.557995E1,-3.6787143E2,8.9335E0,-9.100466E1,3.8664938E2,-1.9098788E2,4.804038E3,-1.0581265E3,-8.1938324E2,-7.2933966E2,-5.0227542E2,-6.448232E2,-4.492414E2,2.2664207E1,1.043502E2],"categories":[],"categories_nodes":[],"categories_segments":[],"categories_sizes":[],"default_left":[0,0,0,0,0,0,0,0,0,0,0,0,0,0,0,0,0,0,0,0,0,0,0,0,0,0,0,0,0,0,0,0,0,0,0,0,0,0,0,0,0,0,0,0,0,0,0,0,0,0,0,0,0,0,0,0,0,0,0,0,0],"id":2,"left_children":[1,3,5,7,9,11,13,15,17,19,21,-1,-1,23,-1,25,27,29,31,33,-1,35,-1,-1,-1,37,-1,39,41,43,45,47,49,-1,51,-1,-1,53,55,57,-1,-1,-1,-1,-1,-1,-1,-1,-1,-1,-1,-1,59,-1,-1,-1,-1,-1,-1,-1,-1],"loss_changes":[2.0957414E12,4.102639E11,2.3254427E11,1.2685109E11,7.897426E10,3.8108987E10,1.2095993E11,5.3881733E10,3.7000487E10,2.9999116E10,3.5639198E10,0E0,0E0,1.4297793E10,0E0,1.1113726E10,6.819201E9,2.0600562E10,1.1343848E10,8.1718277E9,0E0,2.1781156E9,0E0,0E0,0E0,4.9736253E9,0E0,1.07096474E9,5.4807347E9,1.5724159E10,4.305728E9,6.1872056E9,1.3475186E10,0E0,3.9387584E9,0E0,0E0,2.7089306E8,1.1535319E9,6.043566E8,0E0,0E0,0E0,0E0,0E0,0E0,0E0,0E0,0E0,0E0,0E0,0E0,3.2581542E8,0E0,0E0,0E0,0E0,0E0,0E0,0E0,0E0],"parents":[2147483647,0,0,1,1,2,2,3,3,4,4,5,5,6,6,7,7,8,8,9,9,10,10,13,13,15,15,16,16,17,17,18,18,19,19,21,21,25,25,27,27,28,28,29,29,30,30,31,31,32,32,34,34,37,37,38,38,39,39,52,52],"right_children":[2,4,6,8,10,12,14,16,18,20,22,-1,-1,24,-1,26,28,30,32,34,-1,36,-1,-1,-1,38,-1,40,42,44,46,48,50,-1,52,-1,-1,54,56,58,-1,-1,-1,-1,-1,-1,-1,-1,-1,-1,-1,-1,60,-1,-1,-1,-1,-1,-1,-1,-1],"split_conditions":[1.363683E0,6.167045E-1,-3.874998E-2,-8.529731E-2,-3.695886E-2,8.997981E-1,2.1106615E0,-2.3607948E-1,7.6664314E-3,7.834733E-1,-3.5362154E-2,2.0448763E2,1.0460931E3,1.8022696E0,2.7825198E3,4.3520455E0,-1.3027394E-1,1.2054625E0,-1.3027394E-1,-7.059405E-1,4.4541766E2,1.3368117E-2,1.00610834E3,1.2215629E3,1.8341522E3,2.09788E-1,-1.197957E3,6.903203E-2,1.5623166E-1,5.3592112E-2,7.716101E-1,8.096266E-2,-4.4213533E-2,-3.189346E2,1.1382147E0,2.3295288E2,4.6453015E2,-9.705224E-1,-1.3027394E-1,1.2054625E0,-4.016333E2,-4.967809E2,-1.9826346E2,-7.0931885E2,-2.1457936E2,-3.2855112E2,-6.557995E1,-3.6787143E2,8.9335E0,-9.100466E1,3.8664938E2,-1.9098788E2,4.4362238E-1,-1.0581265E3,-8.1938324E2,-7.2933966E2,-5.0227542E2,-6.448232E2,-4.492414E2,2.2664207E1,1.043502E2],"split_indices":[7,7,6,6,6,3,7,3,0,3,3,0,0,11,0,40,7,10,7,3,0,0,0,0,0,11,0,0,3,3,9,3,6,0,35,0,0,3,7,10,0,0,0,0,0,0,0,0,0,0,0,0,3,0,0,0,0,0,0,0,0],"split_type":[0,0,0,0,0,0,0,0,0,0,0,0,0,0,0,0,0,0,0,0,0,0,0,0,0,0,0,0,0,0,0,0,0,0,0,0,0,0,0,0,0,0,0,0,0,0,0,0,0,0,0,0,0,0,0,0,0,0,0,0,0],"sum_hessian":[7.11E2,5.91E2,1.2E2,4.41E2,1.5E2,4.4E1,7.6E1,2.74E2,1.67E2,9E1,6E1,1.4E1,3E1,5.1E1,2.5E1,1.58E2,1.16E2,9.9E1,6.8E1,6.9E1,2.1E1,3.5E1,2.5E1,2.3E1,2.8E1,1.4E2,1.8E1,7E1,4.6E1,5.5E1,4.4E1,2.9E1,3.9E1,2.1E1,4.8E1,1.9E1,1.6E1,8.4E1,5.6E1,5.4E1,1.6E1,2E1,2.6E1,3.8E1,1.7E1,1.8E1,2.6E1,1.5E1,1.4E1,2E1,1.9E1,1.4E1,3.4E1,1.7E1,6.7E1,3.9E1,1.7E1,3.8E1,1.6E1,1.8E1,1.6E1],"tree_param":{"num_deleted":"0","num_feature":"63","num_nodes":"61","size_leaf_vector":"1"}},{"base_weights":[-2.2241804E3,-2.1688574E4,1.15347305E5,-3.9033965E4,2.2597035E4,7.605344E4,1.7952505E5,-5.2542566E4,-1.6821541E4,1.1748666E4,6.5344887E4,5.3132715E4,1.5528903E3,1.7642906E3,3.0541787E3,-6.0857125E4,-2.4179621E4,-2.548736E4,1.7084375E4,4.411555E3,7.2834985E2,5.0052548E2,1.0989182E3,3.019386E2,8.70778E2,-7.154684E4,-5.3139227E4,-3.0105654E4,-1.1223086E2,-4.3616086E4,-1.0839847E4,1.5389299E1,3.988633E2,-1.7612629E4,1.1231875E4,-1.0736248E3,-5.698886E4,-7.300213E2,-4.690817E2,-4.579459E2,-2.9766205E2,-5.1320254E4,-3.9231354E2,-1.808209E4,1.0172481E2,-3.115716E2,-1.3488676E2,-3.6707848E1,1.5619114E4,-8.714011E2,-5.142116E2,-7.9348785E2,-5.014931E2,-2.453971E4,-5.972302E1,9.380908E3,3.5983966E2,-4.318691E2,-1.9469807E2,1.2872134E3,2.7072116E2,3.9961784E1,-7.332513E0],"categories":[],"categories_nodes":[],"categories_segments":[],"categories_sizes":[],"default_left":[0,0,0,0,0,0,0,0,0,0,0,0,0,0,0,0,0,0,0,0,0,0,0,0,0,0,0,0,0,0,0,0,0,0,0,0,0,0,0,0,0,0,0,0,0,0,0,0,0,0,0,0,0,0,0,0,0,0,0,0,0,0,0],"id":3,"left_children":[1,3,5,7,9,11,13,15,17,19,21,23,-1,-1,-1,25,27,29,31,33,-1,-1,-1,-1,-1,35,37,39,-1,41,43,-1,-1,45,47,-1,49,-1,-1,-1,-1,51,-1,53,-1,-1,-1,-1,55,-1,-1,-1,-1,57,-1,59,-1,-1,-1,61,-1,-1,-1],"loss_changes":[1.6433261E12,4.7406318E11,2.4356926E11,1.32042195E11,7.992383E10,5.685343E10,5.992153E10,6.3380455E10,5.0091442E10,4.474824E10,1.4363492E10,1.6062243E10,0E0,0E0,0E0,1.3688504E10,5.6663777E9,3.537521E10,7.391114E9,1.8373472E10,0E0,0E0,0E0,0E0,0E0,8.2762793E9,3.6066755E9,8.490312E8,0E0,4.794745E9,1.0377005E10,0E0,0E0,1.0620805E9,5.768791E9,0E0,3.9581942E9,0E0,0E0,0E0,0E0,2.1341471E9,0E0,4.692613E9,0E0,0E0,0E0,0E0,4.980257E9,0E0,0E0,0E0,0E0,2.5221202E9,0E0,4.350549E9,0E0,0E0,0E0,9.598231E7,0E0,0E0,0E0],"parents":[2147483647,0,0,1,1,2,2,3,3,4,4,5,5,6,6,7,7,8,8,9,9,10,10,11,11,15,15,16,16,17,17,18,18,19,19,25,25,26,26,27,27,29,29,30,30,33,33,34,34,36,36,41,41,43,43,48,48,53,53,55,55,59,59],"right_children":[2,4,6,8,10,12,14,16,18,20,22,24,-1,-1,-1,26,28,30,32,34,-1,-1,-1,-1,-1,36,38,40,-1,42,44,-1,-1,46,48,-1,50,-1,-1,-1,-1,52,-1,54,-1,-1,-1,-1,56,-1,-1,-1,-1,58,-1,60,-1,-1,-1,62,-1,-1,-1],"split_conditions":[1.363683E0,6.167045E-1,3.0776922E-2,-8.249815E-2,9.287261E-3,1.4244002E0,1.1735035E0,1.0255418E-2,3.0637676E-1,9.750671E-1,7.183914E-2,-6.715161E-2,1.5528903E3,1.7642906E3,3.0541787E3,-5.9189653E-1,1.1382147E0,-1.3027394E-1,3.8936684E-1,-7.789286E-1,7.2834985E2,5.0052548E2,1.0989182E3,3.019386E2,8.70778E2,-1.1669925E-1,-3.4468055E-2,-1.02291845E-1,-1.1223086E2,3.8936684E-1,3.0859727E-2,1.5389299E1,3.988633E2,-8.006553E-2,1.1382147E0,-1.0736248E3,-1.3027394E-1,-7.300213E2,-4.690817E2,-4.579459E2,-2.9766205E2,-2.7155794E-2,-3.9231354E2,1.1382147E0,1.0172481E2,-3.115716E2,-1.3488676E2,-3.6707848E1,-4.245793E-2,-8.714011E2,-5.142116E2,-7.9348785E2,-5.014931E2,1.2054625E0,-5.972302E1,5.417001E-1,3.5983966E2,-4.318691E2,-1.9469807E2,-4.5504382E-1,2.7072116E2,3.9961784E1,-7.332513E0],"split_indices":[7,7,6,6,6,3,3,3,0,3,3,6,0,0,0,3,35,7,8,3,0,0,0,0,0,6,0,6,0,8,0,0,0,6,35,0,7,0,0,0,0,6,0,35,0,0,0,0,6,0,0,0,0,10,0,3,0,0,0,3,0,0,0],"split_type":[0,0,0,0,0,0,0,0,0,0,0,0,0,0,0,0,0,0,0,0,0,0,0,0,0,0,0,0,0,0,0,0,0,0,0,0,0,0,0,0,0,0,0,0,0,0,0,0,0,0,0,0,0,0,0,0,0,0,0,0,0,0,0],"sum_hessian":[7.16E2,6.15E2,1.01E2,4.42E2,1.73E2,6.4E1,3.7E1,2.74E2,1.68E2,1.39E2,3.4E1,4.3E1,2.1E1,2.2E1,1.5E1,2.11E2,6.3E1,1.34E2,3.4E1,1.2E2,1.9E1,1.5E1,1.9E1,1.4E1,2.9E1,8.5E1,1.26E2,4.5E1,1.8E1,5.9E1,7.5E1,1.6E1,1.8E1,2.8E1,9.2E1,4.7E1,3.8E1,1.08E2,1.8E1,2.5E1,2E1,3.6E1,2.3E1,5.4E1,2.1E1,1.4E1,1.4E1,2.2E1,7E1,2.3E1,1.5E1,1.9E1,1.7E1,3.6E1,1.8E1,4.7E1,2.3E1,1.8E1,1.8E1,2.8E1,1.9E1,1.4E1,1.4E1],"tree_param":{"num_deleted":"0","num_feature":"63","num_nodes":"63","size_leaf_vector":"1"}},{"base_weights":[-2.3422034E3,-2.2949068E4,1.1179527E5,-3.9318562E4,2.0608219E4,8.002502E4,1.9339127E5,-5.104222E4,-1.9035613E4,1.0164894E4,6.080763E4,2.6132605E2,9.285913E4,1.874533E3,3.0276968E3,-6.91753E4,-4.248118E4,-3.98174E4,-7.551968E3,-1.3148609E4,1.7057297E4,5.121407E2,1.0355107E3,1.7412183E3,7.67783E4,-6.198731E4,-1.1915879E3,-4.8973473E4,-3.10229E4,-7.900702E2,-2.138913E4,-4.2992676E2,-1.4529539E3,-3.0669012E2,-1.7658009E1,2.3157131E3,2.9572057E4,1.1728268E3,6.346979E2,-8.8077734E2,-6.088211E2,-9.5396155E2,-4.4762434E4,-5.0128067E2,-2.0719658E4,-4.116511E2,-1.130424E2,1.0085196E4,-8.39197E3,-1.4655768E2,8.990132E3,5.5100964E2,1.8208754E4,-4.887979E4,-3.8474658E2,-3.191959E2,-1.9968433E2,-6.897597E1,3.6486472E2,-2.8198926E2,2.379892E3,5.4413326E1,1.6420842E2,1.2636814E2,3.4269293E2,-5.1851363E4,-4.7107828E2,-7.261068E1,1.2657962E2,-7.764924E2,-5.935574E2],"categories":[],"categories_nodes":[],"categories_segments":[],"categories_sizes":[],"default_left":[0,0,0,0,0,0,0,0,0,0,0,0,0,0,0,0,0,0,0,0,0,0,0,0,0,0,0,0,0,0,0,0,0,0,0,0,0,0,0,0,0,0,0,0,0,0,0,0,0,0,0,0,0,0,0,0,0,0,0,0,0,0,0,0,0,0,0,0,0,0,0],"id":4,"left_children":[1,3,5,7,9,11,13,15,17,19,21,-1,23,-1,-1,25,27,29,31,33,35,-1,-1,-1,37,39,-1,41,43,-1,45,-1,47,-1,-1,49,51,-1,-1,-1,-1,-1,53,-1,55,-1,-1,57,59,-1,61,-1,63,65,-1,-1,-1,-1,-1,-1,67,-1,-1,-1,-1,69,-1,-1,-1,-1,-1],"loss_changes":[1.6301604E12,4.193476E11,2.5931022E11,1.0056493E11,6.6972193E10,5.8306822E10,2.1861892E10,3.897557E10,3.74061E10,2.095278E10,9.954853E9,0E0,3.0911365E10,0E0,0E0,7.628587E9,1.2317327E10,1.9805618E10,1.5806991E10,3.5948887E9,1.8380257E10,0E0,0E0,0E0,1.2926845E10,2.2878781E9,0E0,8.461615E9,4.4074844E9,0E0,3.6900833E9,0E0,6.809961E9,0E0,0E0,4.333392E9,6.876213E9,0E0,0E0,0E0,0E0,0E0,5.0407834E9,0E0,2.461911E8,0E0,0E0,8.859353E9,7.5387443E9,0E0,4.9536742E8,0E0,1.7866107E9,1.1773542E9,0E0,0E0,0E0,0E0,0E0,0E0,1.7813591E9,0E0,0E0,0E0,0E0,3.2663142E8,0E0,0E0,0E0,0E0,0E0],"parents":[2147483647,0,0,1,1,2,2,3,3,4,4,5,5,6,6,7,7,8,8,9,9,10,10,12,12,15,15,16,16,17,17,18,18,19,19,20,20,24,24,25,25,27,27,28,28,30,30,32,32,35,35,36,36,42,42,44,44,47,47,48,48,50,50,52,52,53,53,60,60,65,65],"right_children":[2,4,6,8,10,12,14,16,18,20,22,-1,24,-1,-1,26,28,30,32,34,36,-1,-1,-1,38,40,-1,42,44,-1,46,-1,48,-1,-1,50,52,-1,-1,-1,-1,-1,54,-1,56,-1,-1,58,60,-1,62,-1,64,66,-1,-1,-1,-1,-1,-1,68,-1,-1,-1,-1,70,-1,-1,-1,-1,-1],"split_conditions":[1.363683E0,6.167045E-1,6.6410387E-1,-1.7387928E-1,3.3943075E-1,-2.1518705E-2,2.6607838E-1,-6.054009E-1,-6.7331153E-1,7.63504E-1,4.990466E-1,2.6132605E2,3.8824236E-1,1.874533E3,3.0276968E3,4.3520455E0,3.9750084E-2,3.8936684E-1,4.2819166E-1,4.2819166E-1,-8.590919E-2,5.121407E2,1.0355107E3,1.7412183E3,1.4871242E0,-1.3216981E-1,-1.1915879E3,4.2819166E-1,-4.196514E-1,-7.900702E2,6.1916847E-2,-4.2992676E2,6.281497E-1,-3.0669012E2,-1.7658009E1,8.88633E-1,1.2054625E0,1.1728268E3,6.346979E2,-8.8077734E2,-6.088211E2,-9.5396155E2,-1.3027394E-1,-5.0128067E2,1.1382147E0,-4.116511E2,-1.130424E2,3.7470034E-1,-9.6071176E-2,-1.4655768E2,-2.210385E-1,5.5100964E2,1.5804912E-1,1.2054625E0,-3.8474658E2,-3.191959E2,-1.9968433E2,-6.897597E1,3.6486472E2,-2.8198926E2,1.2036898E-2,5.4413326E1,1.6420842E2,1.2636814E2,3.4269293E2,3.8936684E-1,-4.7107828E2,-7.261068E1,1.2657962E2,-7.764924E2,-5.935574E2],"split_indices":[7,7,1,1,1,1,0,2,2,43,1,0,56,0,0,40,2,8,19,19,1,0,0,0,30,0,0,19,1,0,1,0,18,0,0,2,10,0,0,0,0,0,7,0,35,0,0,0,2,0,1,0,1,10,0,0,0,0,0,0,1,0,0,0,0,8,0,0,0,0,0],"split_type":[0,0,0,0,0,0,0,0,0,0,0,0,0,0,0,0,0,0,0,0,0,0,0,0,0,0,0,0,0,0,0,0,0,0,0,0,0,0,0,0,0,0,0,0,0,0,0,0,0,0,0,0,0,0,0,0,0,0,0,0,0,0,0,0,0,0,0,0,0,0,0],"sum_hessian":[6.91E2,5.86E2,1.05E2,4.26E2,1.6E2,7.7E1,2.8E1,2.69E2,1.57E2,1.28E2,3.2E1,1.4E1,6.3E1,1.4E1,1.4E1,8.4E1,1.85E2,5.5E1,1.02E2,2.9E1,9.9E1,1.6E1,1.6E1,1.6E1,4.7E1,6.6E1,1.8E1,1.16E2,6.9E1,2.5E1,3E1,1.9E1,8.3E1,1.5E1,1.4E1,4.6E1,5.3E1,3.1E1,1.6E1,4.7E1,1.9E1,1.5E1,1.01E2,3.9E1,3E1,1.6E1,1.4E1,3.1E1,5.2E1,1.5E1,3.1E1,2.4E1,2.9E1,7.8E1,2.3E1,1.6E1,1.4E1,1.7E1,1.4E1,2.3E1,2.9E1,1.4E1,1.7E1,1.5E1,1.4E1,6.1E1,1.7E1,1.4E1,1.5E1,2.5E1,3.6E1],"tree_param":{"num_deleted":"0","num_feature":"63","num_nodes":"71","size_leaf_vector":"1"}},{"base_weights":[3.182077E3,-2.2026377E4,1.17776914E5,-3.852009E4,2.326107E4,7.462938E4,1.7368855E5,-5.1369074E4,-1.6757293E4,5.6096636E3,4.6624734E4,5.3892438E4,1.4532734E3,1.3336928E5,3.2668127E3,-6.1540363E4,-3.0220744E4,-3.6283652E4,-4.6786416E3,-5.4058413E3,4.736838E2,2.587089E4,1.0018836E3,4.1967706E2,1.0127156E3,1.3011807E3,2.0149586E3,-1.1595825E3,-5.8005523E4,-3.916919E4,-2.0178713E4,-4.653698E4,-1.6962895E2,-1.6828693E4,1.1167532E4,-1.5349214E4,1.8727867E2,2.8976261E1,4.989902E2,-6.158903E4,-5.444242E2,-5.686141E2,-3.9634113E2,-3.915049E2,-1.424815E2,-6.899889E2,-4.654037E2,-2.535302E4,2.7397666E0,-6.4054306E1,4.0219696E2,-3.77977E2,-8.332061E3,-9.417947E2,-7.335729E2,-4.768728E2,-2.2827719E2,-2.5980038E2,3.0023727E1],"categories":[],"categories_nodes":[],"categories_segments":[],"categories_sizes":[],"default_left":[0,0,0,0,0,0,0,0,0,0,0,0,0,0,0,0,0,0,0,0,0,0,0,0,0,0,0,0,0,0,0,0,0,0,0,0,0,0,0,0,0,0,0,0,0,0,0,0,0,0,0,0,0,0,0,0,0,0,0],"id":5,"left_children":[1,3,5,7,9,11,13,15,17,19,21,23,-1,25,-1,27,29,31,33,35,-1,37,-1,-1,-1,-1,-1,-1,39,41,43,45,-1,47,49,51,-1,-1,-1,53,-1,-1,-1,-1,-1,-1,-1,55,-1,-1,-1,-1,57,-1,-1,-1,-1,-1,-1],"loss_changes":[2.0507242E12,4.3562572E11,2.9583108E11,1.1854112E11,6.4073105E10,4.9593287E10,1.3412729E11,5.578857E10,3.7566583E10,3.045059E10,3.9443907E10,2.2562669E10,0E0,1.1089347E10,0E0,1.1985814E10,7.207207E9,1.3999858E10,1.944112E10,1.3336478E10,0E0,1.1738223E10,0E0,0E0,0E0,0E0,0E0,0E0,7.011238E9,4.1579315E8,3.642026E9,9.5514624E8,0E0,8.2836634E9,1.392874E10,4.016041E9,0E0,0E0,0E0,3.5475292E9,0E0,0E0,0E0,0E0,0E0,0E0,0E0,2.6920755E9,0E0,0E0,0E0,0E0,3.8264154E9,0E0,0E0,0E0,0E0,0E0,0E0],"parents":[2147483647,0,0,1,1,2,2,3,3,4,4,5,5,6,6,7,7,8,8,9,9,10,10,11,11,13,13,15,15,16,16,17,17,18,18,19,19,21,21,28,28,29,29,30,30,31,31,33,33,34,34,35,35,39,39,47,47,52,52],"right_children":[2,4,6,8,10,12,14,16,18,20,22,24,-1,26,-1,28,30,32,34,36,-1,38,-1,-1,-1,-1,-1,-1,40,42,44,46,-1,48,50,52,-1,-1,-1,54,-1,-1,-1,-1,-1,-1,-1,56,-1,-1,-1,-1,58,-1,-1,-1,-1,-1,-1],"split_conditions":[1.363683E0,6.167045E-1,1.2670195E0,-1.5755494E-1,1.2540042E-1,3.9384523E-1,5.8248216E-1,-1.69934E-1,-1.3027394E-1,7.834733E-1,-3.5362154E-2,8.997981E-1,1.4532734E3,4.3905955E-2,3.2668127E3,-5.313307E-1,-3.969787E-1,1.8306573E-1,-1.22411465E-2,2.4825932E-1,4.736838E2,7.188564E-1,1.0018836E3,4.1967706E2,1.0127156E3,1.3011807E3,2.0149586E3,-1.1595825E3,3.9750084E-2,-1.0482105E-1,-1.3027394E-1,3.8936684E-1,-1.6962895E2,2.0952666E-1,1.3265568E-1,2.0952666E-1,1.8727867E2,2.8976261E1,4.989902E2,-3.4264895E-1,-5.444242E2,-5.686141E2,-3.9634113E2,-3.915049E2,-1.424815E2,-6.899889E2,-4.654037E2,3.8936684E-1,2.7397666E0,-6.4054306E1,4.0219696E2,-3.77977E2,-6.854126E-1,-9.417947E2,-7.335729E2,-4.768728E2,-2.2827719E2,-2.5980038E2,3.0023727E1],"split_indices":[7,7,3,1,1,1,1,3,7,3,3,3,0,0,0,8,1,0,0,4,0,2,0,0,0,0,0,0,2,0,7,8,0,2,1,2,0,0,0,0,0,0,0,0,0,0,0,8,0,0,0,0,3,0,0,0,0,0,0],"split_type":[0,0,0,0,0,0,0,0,0,0,0,0,0,0,0,0,0,0,0,0,0,0,0,0,0,0,0,0,0,0,0,0,0,0,0,0,0,0,0,0,0,0,0,0,0,0,0,0,0,0,0,0,0,0,0,0,0,0,0],"sum_hessian":[7.08E2,5.81E2,1.27E2,4.26E2,1.55E2,7.3E1,5.4E1,2.67E2,1.59E2,8.9E1,6.6E1,4.8E1,2.5E1,3.7E1,1.7E1,1.79E2,8.8E1,6E1,9.9E1,6.6E1,2.3E1,4E1,2.6E1,2.6E1,2.2E1,1.6E1,2.1E1,1.8E1,1.61E2,4.5E1,4.3E1,4.1E1,1.9E1,5.6E1,4.3E1,4.4E1,2.2E1,1.4E1,2.6E1,1.3E2,3.1E1,2.8E1,1.7E1,2E1,2.3E1,2.4E1,1.7E1,3.7E1,1.9E1,2.4E1,1.9E1,1.4E1,3E1,4.2E1,8.8E1,1.4E1,2.3E1,1.4E1,1.6E1],"tree_param":{"num_deleted":"0","num_feature":"63","num_nodes":"59","size_leaf_vector":"1"}},{"base_weights":[2.8265205E3,-2.073033E4,1.18106305E5,-3.5959707E4,2.1702135E4,8.0461664E4,1.681914E5,-4.885743E4,-1.1962111E4,1.0747845E4,6.2699035E4,4.138496E2,9.645558E4,1.3536761E3,1.9189788E5,-5.5686406E4,-2.5860637E4,-3.4739652E4,3.622222E3,2.9990442E3,7.4221735E2,4.387567E2,1.1119379E3,8.028739E4,1.6891305E3,1.8986072E3,3.0920222E3,-1.0042228E3,-5.2085133E4,-3.2992793E4,-1.743413E4,-4.2555914E4,-1.451921E2,-6.463406E3,1.9534037E4,-2.4429977E2,8.837275E3,6.869802E2,1.3108954E3,-5.5918883E4,-3.4823855E4,-5.0682397E2,-3.3289536E2,-2.761424E2,-1.6674373E2,-6.502463E2,-4.259391E2,-2.8465256E2,3.1438682E3,1.4484572E2,3.8740912E2,-1.7900768E2,1.5479721E4,-5.8013293E4,-4.9869366E2,-5.978071E2,-2.9000784E2,-6.693066E1,1.6707394E2,6.370484E1,2.1891135E4,-6.1711316E4,-6.2578436E2,2.019027E2,3.8530453E2,-8.4248724E2,-6.162981E2],"categories":[],"categories_nodes":[],"categories_segments":[],"categories_sizes":[],"default_left":[0,0,0,0,0,0,0,0,0,0,0,0,0,0,0,0,0,0,0,0,0,0,0,0,0,0,0,0,0,0,0,0,0,0,0,0,0,0,0,0,0,0,0,0,0,0,0,0,0,0,0,0,0,0,0,0,0,0,0,0,0,0,0,0,0,0,0],"id":6,"left_children":[1,3,5,7,9,11,13,15,17,19,21,-1,23,-1,25,27,29,31,33,35,-1,-1,-1,37,-1,-1,-1,-1,39,41,43,45,-1,47,49,-1,51,-1,-1,53,55,-1,-1,-1,-1,-1,-1,-1,57,-1,-1,-1,59,61,-1,-1,-1,-1,-1,-1,63,65,-1,-1,-1,-1,-1],"loss_changes":[1.8246352E12,3.6137114E11,2.0140668E11,1.2662591E11,6.579173E10,4.9353785E10,5.4092104E10,4.0490893E10,5.1596886E10,4.1763234E10,1.7198195E10,0E0,1.5827501E10,0E0,3.618688E10,1.1444093E10,3.2110428E9,1.0442531E10,1.4088072E10,1.3046285E10,0E0,0E0,0E0,1.4536049E10,0E0,0E0,0E0,0E0,9.831875E9,4.3925094E8,2.6249728E8,1.5072051E9,0E0,7.9782124E9,2.562942E9,0E0,1.2311854E10,0E0,0E0,3.1871468E9,3.7809357E9,0E0,0E0,0E0,0E0,0E0,0E0,0E0,2.7570486E9,0E0,0E0,0E0,4.1836595E9,1.8850447E9,0E0,0E0,0E0,0E0,0E0,0E0,1.4453596E9,3.47734E8,0E0,0E0,0E0,0E0,0E0],"parents":[2147483647,0,0,1,1,2,2,3,3,4,4,5,5,6,6,7,7,8,8,9,9,10,10,12,12,14,14,15,15,16,16,17,17,18,18,19,19,23,23,28,28,29,29,30,30,31,31,33,33,34,34,36,36,39,39,40,40,48,48,52,52,53,53,60,60,61,61],"right_children":[2,4,6,8,10,12,14,16,18,20,22,-1,24,-1,26,28,30,32,34,36,-1,-1,-1,38,-1,-1,-1,-1,40,42,44,46,-1,48,50,-1,52,-1,-1,54,56,-1,-1,-1,-1,-1,-1,-1,58,-1,-1,-1,60,62,-1,-1,-1,-1,-1,-1,64,66,-1,-1,-1,-1,-1],"split_conditions":[1.363683E0,6.167045E-1,-4.510361E-2,-9.951281E-2,3.4759292E-1,-1.0635806E-2,3.1585115E-1,3.3064205E-2,-1.3027394E-1,9.750671E-1,7.183914E-2,4.138496E2,3.2898343E0,1.3536761E3,2.1106615E0,-1.1712397E0,-1.3027394E-1,-3.7449922E-2,-5.685381E-2,-4.8556954E-1,7.4221735E2,4.387567E2,1.1119379E3,8.4179735E-1,1.6891305E3,1.8986072E3,3.0920222E3,-1.0042228E3,1.2054625E0,-3.129039E-1,-2.2657111E-1,3.8936684E-1,-1.451921E2,7.716101E-1,2.8501627E-1,-2.4429977E2,-7.036596E-1,6.869802E2,1.3108954E3,-4.3845527E-2,-1.3027394E-1,-5.0682397E2,-3.3289536E2,-2.761424E2,-1.6674373E2,-6.502463E2,-4.259391E2,-2.8465256E2,-3.318764E-1,1.4484572E2,3.8740912E2,-1.7900768E2,-1.0314044E-1,-1.3027394E-1,-4.9869366E2,-5.978071E2,-2.9000784E2,-6.693066E1,1.6707394E2,6.370484E1,-6.662045E-2,-2.3607948E-1,-6.2578436E2,2.019027E2,3.8530453E2,-8.4248724E2,-6.162981E2],"split_indices":[7,7,5,1,1,1,1,3,7,3,3,0,54,0,7,3,7,5,5,4,0,0,0,4,0,0,0,0,10,4,4,8,0,9,1,0,3,0,0,5,7,0,0,0,0,0,0,0,3,0,0,0,1,7,0,0,0,0,0,0,5,3,0,0,0,0,0],"split_type":[0,0,0,0,0,0,0,0,0,0,0,0,0,0,0,0,0,0,0,0,0,0,0,0,0,0,0,0,0,0,0,0,0,0,0,0,0,0,0,0,0,0,0,0,0,0,0,0,0,0,0,0,0,0,0,0,0,0,0,0,0,0,0,0,0,0,0],"sum_hessian":[6.7E2,5.57E2,1.13E2,4.1E2,1.47E2,6.6E1,4.7E1,2.66E2,1.44E2,1.17E2,3E1,1.7E1,4.9E1,1.4E1,3.3E1,2.04E2,6.2E1,5.8E1,8.6E1,1.01E2,1.6E1,1.4E1,1.6E1,3.5E1,1.4E1,1.8E1,1.5E1,2.7E1,1.77E2,3.2E1,3E1,4.3E1,1.5E1,5.3E1,3.3E1,2.1E1,8E1,1.6E1,1.9E1,1.43E2,3.4E1,1.6E1,1.6E1,1.5E1,1.5E1,2.3E1,2E1,2E1,3.3E1,1.9E1,1.4E1,1.8E1,6.2E1,1.26E2,1.7E1,1.7E1,1.7E1,1.8E1,1.5E1,2.4E1,3.8E1,8.9E1,3.7E1,2.2E1,1.6E1,7.3E1,1.6E1],"tree_param":{"num_deleted":"0","num_feature":"63","num_nodes":"67","size_leaf_vector":"1"}},{"base_weights":[-1.8428462E3,-1.7886287E4,1.1303455E5,-4.3933957E4,8.803113E3,6.3334594E4,1.7385411E5,-5.255879E4,-1.2503347E4,-8.304221E3,3.2194207E4,2.5313002E2,1.3535424E3,1.54181E3,3.0544302E3,-4.9932438E4,-1.0965812E3,-2.8046588E4,2.955454E3,-3.7433402E4,-5.596853E2,1.5733957E4,5.5678754E4,-5.774326E4,-4.1830848E4,-4.509623E2,-2.9076886E2,-1.08738815E2,1.621784E2,-6.1152264E2,-2.6493756E2,-4.8575278E2,7.046719E3,-7.394713E3,3.6285277E4,2.5720908E2,6.9045586E4,-9.6712695E2,-5.2762664E4,-4.696053E4,-3.2780895E4,-3.3273943E3,2.3807846E4,-2.2664104E2,9.552772E1,2.2902312E2,6.896406E2,6.5703644E2,1.0180249E3,-7.3953784E2,-5.494648E2,-6.550711E2,-4.6940143E2,-5.1756836E2,-3.1953748E2,-3.063786E2,4.3847007E3,1.6142079E2,4.0329037E2,-4.961502E3,2.3081139E2,-1.3205055E2,-1.884438E0],"categories":[],"categories_nodes":[],"categories_segments":[],"categories_sizes":[],"default_left":[0,0,0,0,0,0,0,0,0,0,0,0,0,0,0,0,0,0,0,0,0,0,0,0,0,0,0,0,0,0,0,0,0,0,0,0,0,0,0,0,0,0,0,0,0,0,0,0,0,0,0,0,0,0,0,0,0,0,0,0,0,0,0],"id":7,"left_children":[1,3,5,7,9,11,13,15,17,19,21,-1,-1,-1,-1,23,-1,25,27,29,31,33,35,37,39,-1,-1,-1,-1,-1,-1,-1,41,43,45,-1,47,-1,49,51,53,55,57,-1,-1,-1,-1,-1,-1,-1,-1,-1,-1,-1,-1,-1,59,-1,-1,61,-1,-1,-1],"loss_changes":[1.3234732E12,4.3836067E11,2.549893E11,8.5818474E10,1.2511704E11,8.58421E10,1.022937E11,1.6228483E10,1.6902482E10,4.08112E10,5.0150072E10,0E0,0E0,0E0,0E0,1.2328829E10,0E0,5.4140314E8,3.9147901E9,5.084639E9,4.022757E10,3.7818974E10,2.4675123E10,5.3629747E9,3.9385498E9,0E0,0E0,0E0,0E0,0E0,0E0,0E0,2.0945035E10,5.643768E9,1.1974332E10,0E0,2.4584028E9,0E0,1.272873E9,6.5632666E8,1.6274842E9,1.1693678E10,3.2971592E9,0E0,0E0,0E0,0E0,0E0,0E0,0E0,0E0,0E0,0E0,0E0,0E0,0E0,6.8825185E9,0E0,0E0,8.1095917E8,0E0,0E0,0E0],"parents":[2147483647,0,0,1,1,2,2,3,3,4,4,5,5,6,6,7,7,8,8,9,9,10,10,15,15,17,17,18,18,19,19,20,20,21,21,22,22,23,23,24,24,32,32,33,33,34,34,36,36,38,38,39,39,40,40,41,41,42,42,56,56,59,59],"right_children":[2,4,6,8,10,12,14,16,18,20,22,-1,-1,-1,-1,24,-1,26,28,30,32,34,36,38,40,-1,-1,-1,-1,-1,-1,-1,42,44,46,-1,48,-1,50,52,54,56,58,-1,-1,-1,-1,-1,-1,-1,-1,-1,-1,-1,-1,-1,60,-1,-1,62,-1,-1,-1],"split_conditions":[1.8022696E0,-1.5755494E-1,3.4759292E-1,1.7904045E-1,-3.9923914E-2,1.239649E0,9.112025E-1,4.3520455E0,1.1382147E0,2.09788E-1,1.8525636E-1,2.5313002E2,1.3535424E3,1.54181E3,3.0544302E3,-7.6615113E-1,-1.0965812E3,-3.129039E-1,-1.078635E-1,6.282376E-2,4.2819166E-1,1.1382147E0,3.2427307E-2,-4.3967426E-1,7.63504E-1,-4.509623E2,-2.9076886E2,-1.08738815E2,1.621784E2,-6.1152264E2,-2.6493756E2,-4.8575278E2,2.0248762E-1,1.9166657E-1,9.4769657E-1,2.5720908E2,3.5847583E-1,-9.6712695E2,-2.0870894E-1,1.1382147E0,-1.840648E-1,1.1382147E0,-5.5084074E-1,-2.2664104E2,9.552772E1,2.2902312E2,6.896406E2,6.5703644E2,1.0180249E3,-7.3953784E2,-5.494648E2,-6.550711E2,-4.6940143E2,-5.1756836E2,-3.1953748E2,-3.063786E2,7.007902E-2,1.6142079E2,4.0329037E2,-7.4471545E-1,2.3081139E2,-1.3205055E2,-1.884438E0],"split_indices":[11,1,1,3,3,3,3,40,35,11,1,0,0,0,0,4,0,4,4,1,19,35,4,0,43,0,0,0,0,0,0,0,1,0,3,0,1,0,3,35,0,35,3,0,0,0,0,0,0,0,0,0,0,0,0,0,1,0,0,3,0,0,0],"split_type":[0,0,0,0,0,0,0,0,0,0,0,0,0,0,0,0,0,0,0,0,0,0,0,0,0,0,0,0,0,0,0,0,0,0,0,0,0,0,0,0,0,0,0,0,0,0,0,0,0,0,0,0,0,0,0,0,0,0,0,0,0,0,0],"sum_hessian":[7.16E2,6.29E2,8.7E1,3.18E2,3.11E2,4.9E1,3.8E1,2.49E2,6.9E1,1.8E2,1.31E2,2.4E1,2.5E1,2.1E1,1.7E1,2.32E2,1.7E1,3.4E1,3.5E1,3.7E1,1.43E2,7.8E1,5.3E1,1.15E2,1.17E2,1.4E1,2E1,1.6E1,1.9E1,2.3E1,1.4E1,2.4E1,1.19E2,3.7E1,4.1E1,1.5E1,3.8E1,2.4E1,9.1E1,7.2E1,4.5E1,7.4E1,4.5E1,2.2E1,1.5E1,2E1,2.1E1,1.4E1,2.4E1,6.5E1,2.6E1,5.4E1,1.8E1,2.3E1,2.2E1,2E1,5.4E1,1.8E1,2.7E1,3.2E1,2.2E1,1.5E1,1.7E1],"tree_param":{"num_deleted":"0","num_feature":"63","num_nodes":"63","size_leaf_vector":"1"}},{"base_weights":[2.4085566E3,-2.0008338E4,1.14665516E5,-4.4532184E4,7.2536343E3,8.298365E4,1.8863403E5,-5.269139E4,-1.776797E4,-3.679299E4,1.692358E4,5.680319E4,1.5154954E3,1.6160293E3,3.3366467E3,-6.590639E4,-4.3974332E4,-2.600393E4,1.1593288E2,-6.832972E2,-3.001643E2,7.491079E3,5.3875566E4,2.7705487E2,7.0870336E4,-7.911354E2,-1.1161971E3,-5.7576008E4,-3.890733E4,-5.450897E2,-1.9824182E4,-3.8249873E3,2.5236268E4,4.1055106E2,8.993601E2,7.28155E2,1.0674752E3,-6.1318994E2,-8.85556E2,-4.2748953E4,-2.7986236E4,-3.6971713E2,-1.6217319E2,-2.549907E2,1.1243792E3,5.163837E1,3.4718188E4,-5.9660657E2,-4.600895E2,-4.4634833E2,-2.645971E2,-1.5794731E2,7.032552E3,1.6562358E2,4.713494E4,8.222942E2,2.5451845E2,4.862177E2,7.261667E2,-8.8810074E1,1.5660538E2],"categories":[],"categories_nodes":[],"categories_segments":[],"categories_sizes":[],"default_left":[0,0,0,0,0,0,0,0,0,0,0,0,0,0,0,0,0,0,0,0,0,0,0,0,0,0,0,0,0,0,0,0,0,0,0,0,0,0,0,0,0,0,0,0,0,0,0,0,0,0,0,0,0,0,0,0,0,0,0,0,0],"id":8,"left_children":[1,3,5,7,9,11,13,15,17,19,21,23,-1,-1,-1,25,27,29,-1,-1,-1,31,33,-1,35,-1,-1,37,39,-1,41,43,45,-1,-1,-1,-1,-1,-1,47,49,-1,-1,-1,51,-1,53,-1,-1,-1,-1,-1,55,-1,57,59,-1,-1,-1,-1,-1],"loss_changes":[1.7537452E12,3.8876126E11,2.5618796E11,6.588642E10,1.1817892E11,6.4278168E10,1.1501398E11,2.4057741E10,1.6228585E10,9.45519E9,7.871717E10,2.2589276E10,0E0,0E0,0E0,4.6026916E9,7.6842926E9,4.563976E9,0E0,0E0,0E0,3.664317E10,1.3128065E10,0E0,9.765028E8,0E0,0E0,8.2631066E8,3.334701E9,0E0,2.2732943E9,8.68214E9,1.4201324E10,0E0,0E0,0E0,0E0,0E0,0E0,4.8267264E7,7.78496E8,0E0,0E0,0E0,6.7768975E9,0E0,1.2842287E10,0E0,0E0,0E0,0E0,0E0,4.596793E9,0E0,5.165957E8,3.5445612E9,0E0,0E0,0E0,0E0,0E0],"parents":[2147483647,0,0,1,1,2,2,3,3,4,4,5,5,6,6,7,7,8,8,9,9,10,10,11,11,15,15,16,16,17,17,21,21,22,22,24,24,27,27,28,28,30,30,31,31,32,32,39,39,40,40,44,44,46,46,52,52,54,54,55,55],"right_children":[2,4,6,8,10,12,14,16,18,20,22,24,-1,-1,-1,26,28,30,-1,-1,-1,32,34,-1,36,-1,-1,38,40,-1,42,44,46,-1,-1,-1,-1,-1,-1,48,50,-1,-1,-1,52,-1,54,-1,-1,-1,-1,-1,56,-1,58,60,-1,-1,-1,-1,-1],"split_conditions":[1.363683E0,7.716101E-1,2.1106615E0,-1.7660001E-1,-1.3027394E-1,3.3126858E-1,5.4801965E-1,-6.054009E-1,2.2326744E-1,-4.6957967E-1,3.657311E-1,-1.0676807E-1,1.5154954E3,1.6160293E3,3.3366467E3,4.3520455E0,-1.0845034E0,-1.8617476E0,1.1593288E2,-6.832972E2,-3.001643E2,2.1588452E-1,6.167045E-1,2.7705487E2,1.0584096E0,-7.911354E2,-1.1161971E3,-1.9793713E-1,-3.969787E-1,-5.450897E2,1.2054625E0,-2.210385E-1,6.167045E-1,4.1055106E2,8.993601E2,7.28155E2,1.0674752E3,-6.1318994E2,-8.85556E2,1.4161603E-1,-1.3027394E-1,-3.6971713E2,-1.6217319E2,-2.549907E2,1.1382147E0,5.163837E1,-7.5933196E-2,-5.9660657E2,-4.600895E2,-4.4634833E2,-2.645971E2,-1.5794731E2,1.0014981E0,1.6562358E2,1.0014981E0,4.2871777E-2,2.5451845E2,4.862177E2,7.261667E2,-8.8810074E1,1.5660538E2],"split_indices":[7,9,7,1,7,1,1,2,0,2,1,1,0,0,0,40,4,2,0,0,0,4,7,0,2,0,0,2,1,0,10,1,7,0,0,0,0,0,0,2,7,0,0,0,35,0,1,0,0,0,0,0,27,0,27,1,0,0,0,0,0],"split_type":[0,0,0,0,0,0,0,0,0,0,0,0,0,0,0,0,0,0,0,0,0,0,0,0,0,0,0,0,0,0,0,0,0,0,0,0,0,0,0,0,0,0,0,0,0,0,0,0,0,0,0,0,0,0,0,0,0,0,0,0,0],"sum_hessian":[6.95E2,5.8E2,1.15E2,3.05E2,2.75E2,8.2E1,3.3E1,2.33E2,7.2E1,4.9E1,2.26E2,4.7E1,3.5E1,1.8E1,1.5E1,9E1,1.43E2,5.5E1,1.7E1,2.2E1,2.7E1,1.81E2,4.5E1,1.4E1,3.3E1,7.3E1,1.7E1,3.6E1,1.07E2,1.4E1,4.1E1,1.11E2,7E1,1.9E1,2.6E1,1.6E1,1.7E1,2E1,1.6E1,7.7E1,3E1,1.8E1,2.3E1,2.6E1,8.5E1,2.2E1,4.8E1,5.3E1,2.4E1,1.5E1,1.5E1,2.6E1,5.9E1,1.8E1,3E1,4E1,1.9E1,1.6E1,1.4E1,2.4E1,1.6E1],"tree_param":{"num_deleted":"0","num_feature":"63","num_nodes":"61","size_leaf_vector":"1"}},{"base_weights":[-1.9531647E3,-1.784216E4,1.1273914E5,-4.202484E4,9.128154E3,4.488674E4,1.5890434E5,-5.174956E4,-9.523059E3,-8.749204E3,2.949079E4,1.1597057E2,1.1424447E3,1.5144415E3,2.7129697E3,-6.766128E4,-4.1433215E4,-2.280569E4,7.670684E3,-2.8633396E4,1.3742028E4,1.0068113E4,4.84733E4,-1.0041223E3,-6.964091E2,-4.7103477E4,-2.9502643E4,-3.8223376E2,-2.2713722E2,-6.148581E1,2.5671698E2,-6.243356E2,-2.322777E4,-1.5598505E1,4.8082217E2,-1.5920004E3,2.540178E4,3.060296E2,6.1080344E4,-7.236551E2,-4.189863E4,-5.373045E2,-2.405235E4,-2.857612E4,-1.15054474E2,-2.4260727E2,1.6429037E2,-1.0747042E2,1.2484654E2,2.0407843E2,4.398253E2,6.598969E2,9.859009E2,-5.859556E2,-4.1152872E2,-2.2567393E2,-4.0759958E2,-4.9012607E2,-2.4361012E2],"categories":[],"categories_nodes":[],"categories_segments":[],"categories_sizes":[],"default_left":[0,0,0,0,0,0,0,0,0,0,0,0,0,0,0,0,0,0,0,0,0,0,0,0,0,0,0,0,0,0,0,0,0,0,0,0,0,0,0,0,0,0,0,0,0,0,0,0,0,0,0,0,0,0,0,0,0,0,0],"id":9,"left_children":[1,3,5,7,9,11,13,15,17,19,21,-1,-1,-1,-1,23,25,27,29,31,33,35,37,-1,-1,39,41,-1,-1,-1,-1,-1,43,45,-1,47,49,-1,51,-1,53,-1,55,57,-1,-1,-1,-1,-1,-1,-1,-1,-1,-1,-1,-1,-1,-1,-1],"loss_changes":[1.2430287E12,3.9106013E11,2.528582E11,9.9385475E10,1.0364257E11,5.2521927E10,7.819978E10,3.7085184E10,1.7074917E10,6.8370915E10,4.854789E10,0E0,0E0,0E0,0E0,8.1327227E9,8.757723E9,9.563566E8,4.949306E9,7.206322E9,2.271382E10,1.2019524E10,1.9803177E10,0E0,0E0,1.8978243E9,2.2046024E9,0E0,0E0,0E0,0E0,0E0,4.773593E9,1.0901444E10,0E0,2.9408184E9,1.8009293E9,0E0,2.8915302E9,0E0,5.048156E8,0E0,1.2454339E9,3.4424218E9,0E0,0E0,0E0,0E0,0E0,0E0,0E0,0E0,0E0,0E0,0E0,0E0,0E0,0E0,0E0],"parents":[2147483647,0,0,1,1,2,2,3,3,4,4,5,5,6,6,7,7,8,8,9,9,10,10,15,15,16,16,17,17,18,18,19,19,20,20,21,21,22,22,25,25,26,26,32,32,33,33,35,35,36,36,38,38,40,40,42,42,43,43],"right_children":[2,4,6,8,10,12,14,16,18,20,22,-1,-1,-1,-1,24,26,28,30,32,34,36,38,-1,-1,40,42,-1,-1,-1,-1,-1,44,46,-1,48,50,-1,52,-1,54,-1,56,58,-1,-1,-1,-1,-1,-1,-1,-1,-1,-1,-1,-1,-1,-1,-1],"split_conditions":[1.8022696E0,-8.249815E-2,-2.7155794E-2,4.1325855E-1,2.774373E-1,1.239649E0,1.1735035E0,-5.325937E-1,3.113314E-1,2.6994178E-2,-2.3151772E-1,1.1597057E2,1.1424447E3,1.5144415E3,2.7129697E3,-1.1669925E-1,-1.1464125E-1,-1.1702106E-1,-1.9959211E-1,-1.7259264E0,2.6115206E-1,-3.5977036E-2,-5.220301E-2,-1.0041223E3,-6.964091E2,-2.773212E-1,-2.1035054E-1,-3.8223376E2,-2.2713722E2,-6.148581E1,2.5671698E2,-6.243356E2,-3.400314E-2,-2.17006E-2,4.8082217E2,-1.294467E-1,-4.7329086E-1,3.060296E2,7.6750714E-1,-7.236551E2,-6.2115863E-2,-5.373045E2,-7.54887E-2,-4.6398634E-1,-1.15054474E2,-2.4260727E2,1.6429037E2,-1.0747042E2,1.2484654E2,2.0407843E2,4.398253E2,6.598969E2,9.859009E2,-5.859556E2,-4.1152872E2,-2.2567393E2,-4.0759958E2,-4.9012607E2,-2.4361012E2],"split_indices":[11,6,6,2,2,3,3,3,3,0,3,0,0,0,0,6,6,6,4,2,3,6,6,0,0,0,0,0,0,0,0,0,6,6,0,4,3,0,3,0,2,0,4,4,0,0,0,0,0,0,0,0,0,0,0,0,0,0,0],"split_type":[0,0,0,0,0,0,0,0,0,0,0,0,0,0,0,0,0,0,0,0,0,0,0,0,0,0,0,0,0,0,0,0,0,0,0,0,0,0,0,0,0,0,0,0,0,0,0,0,0,0,0,0,0,0,0,0,0,0,0],"sum_hessian":[6.8E2,5.98E2,8.2E1,3.15E2,2.83E2,3.4E1,4.8E1,2.42E2,7.3E1,1.51E2,1.32E2,1.9E1,1.5E1,2.7E1,2.1E1,9.3E1,1.49E2,4.1E1,3.2E1,8E1,7.1E1,6.6E1,6.6E1,5.5E1,3.8E1,9.9E1,5E1,1.7E1,2.4E1,1.6E1,1.6E1,1.6E1,6.4E1,4.5E1,2.6E1,3.8E1,2.8E1,2.3E1,4.3E1,3.5E1,6.4E1,1.4E1,3.6E1,4.6E1,1.8E1,1.8E1,2.7E1,2.4E1,1.4E1,1.4E1,1.4E1,2.7E1,1.6E1,4.8E1,1.6E1,2E1,1.6E1,2.3E1,2.3E1],"tree_param":{"num_deleted":"0","num_feature":"63","num_nodes":"59","size_leaf_vector":"1"}},{"base_weights":[1.6660557E3,-1.9658668E4,1.0193136E5,-3.5538633E4,2.2239953E4,7.245517E4,1.5371478E5,-4.8489805E4,-1.4966055E4,1.2598779E4,5.6747766E4,3.9565016E4,1.01973734E5,1.5109222E3,2.5731597E3,-5.85109E4,-3.2310416E4,-3.0585129E4,-4.3453755E3,6.274074E3,6.489595E2,3.8225116E2,9.781871E2,3.2937933E2,6.6539026E2,1.00823834E3,1.5071132E3,-5.4494117E4,-1.0869305E3,-3.846898E4,-2.1849314E4,-3.708883E4,-8.4353004E1,-1.3469554E4,2.5972134E2,1.161399E4,-2.723777E2,-9.031067E2,-4.977302E4,-4.1095344E4,-3.6286035E2,-4.2495508E2,-1.3367264E2,-4.482178E4,-2.2776685E2,-3.854607E2,-7.91036E3,2.1590615E3,2.1898236E4,-5.5113066E4,-3.996287E4,-6.1733325E2,-4.3004996E2,-6.565423E2,-4.4749768E2,-1.2361503E4,1.2321067E1,-1.5061426E2,8.1159907E3,1.892408E2,4.5720377E2,-7.684298E2,-5.577374E2,-4.1067972E2,-5.871063E2,-2.0798209E2,-8.394437E1,2.0163391E2,2.0624937E1],"categories":[],"categories_nodes":[],"categories_segments":[],"categories_sizes":[],"default_left":[0,0,0,0,0,0,0,0,0,0,0,0,0,0,0,0,0,0,0,0,0,0,0,0,0,0,0,0,0,0,0,0,0,0,0,0,0,0,0,0,0,0,0,0,0,0,0,0,0,0,0,0,0,0,0,0,0,0,0,0,0,0,0,0,0,0,0,0,0],"id":10,"left_children":[1,3,5,7,9,11,13,15,17,19,21,23,25,-1,-1,27,29,31,33,35,-1,-1,-1,-1,-1,-1,-1,37,-1,39,41,43,-1,45,-1,47,-1,-1,49,51,-1,-1,-1,53,-1,-1,55,57,59,61,63,-1,-1,-1,-1,65,-1,-1,67,-1,-1,-1,-1,-1,-1,-1,-1,-1,-1],"loss_changes":[1.4751754E12,3.7937375E11,1.7355427E11,1.0931359E11,5.15183E10,7.2664154E10,4.776598E10,3.912971E10,2.657461E10,2.8626364E10,1.4578991E10,5.024928E9,4.4984893E9,0E0,0E0,1.0666803E10,5.5375954E9,9.971233E9,2.164433E10,1.5695791E10,0E0,0E0,0E0,0E0,0E0,0E0,0E0,5.807997E9,0E0,5.919539E8,4.470012E9,6.997459E9,0E0,6.0547727E9,0E0,8.704035E9,0E0,0E0,3.350528E9,7.9048704E8,0E0,0E0,0E0,3.1250022E8,0E0,0E0,2.1388362E9,3.9951555E9,3.660757E9,4.0719155E8,3.0334566E8,0E0,0E0,0E0,0E0,6.4953805E8,0E0,0E0,1.5914227E9,0E0,0E0,0E0,0E0,0E0,0E0,0E0,0E0,0E0,0E0],"parents":[2147483647,0,0,1,1,2,2,3,3,4,4,5,5,6,6,7,7,8,8,9,9,10,10,11,11,12,12,15,15,16,16,17,17,18,18,19,19,27,27,29,29,30,30,31,31,33,33,35,35,38,38,39,39,43,43,46,46,47,47,48,48,49,49,50,50,55,55,58,58],"right_children":[2,4,6,8,10,12,14,16,18,20,22,24,26,-1,-1,28,30,32,34,36,-1,-1,-1,-1,-1,-1,-1,38,-1,40,42,44,-1,46,-1,48,-1,-1,50,52,-1,-1,-1,54,-1,-1,56,58,60,62,64,-1,-1,-1,-1,66,-1,-1,68,-1,-1,-1,-1,-1,-1,-1,-1,-1,-1],"split_conditions":[1.363683E0,6.167045E-1,4.5914263E-1,-1.7660001E-1,3.4759292E-1,1.1575373E0,1.6565632E0,-2.3607948E-1,-1.3027394E-1,9.750671E-1,-3.5362154E-2,1.5653071E-1,1.4244002E0,1.5109222E3,2.5731597E3,4.3520455E0,-1.3027394E-1,4.8011643E-1,1.4122115E-1,1.600833E0,6.489595E2,3.8225116E2,9.781871E2,3.2937933E2,6.6539026E2,1.00823834E3,1.5071132E3,-8.7725246E-1,-1.0869305E3,9.174213E-2,-4.0242013E-1,1.2054625E0,-8.4353004E1,-5.5031914E-1,2.5972134E2,-8.590919E-2,-2.723777E2,-9.031067E2,-4.3161154E-1,2.09788E-1,-3.6286035E2,-4.2495508E2,-1.3367264E2,7.63504E-1,-2.2776685E2,-3.854607E2,1.1382147E0,-3.129039E-1,3.7236273E-1,-1.5468663E-1,3.8936684E-1,-6.1733325E2,-4.3004996E2,-6.565423E2,-4.4749768E2,-8.12412E-2,1.2321067E1,-1.5061426E2,-3.2187164E-1,1.892408E2,4.5720377E2,-7.684298E2,-5.577374E2,-4.1067972E2,-5.871063E2,-2.0798209E2,-8.394437E1,2.0163391E2,2.0624937E1],"split_indices":[7,7,1,1,1,3,4,3,7,3,3,4,3,0,0,40,7,3,0,47,0,0,0,0,0,0,0,7,0,0,1,10,0,4,0,1,0,0,4,11,0,0,0,43,0,0,35,4,4,0,8,0,0,0,0,0,0,0,0,0,0,0,0,0,0,0,0,0,0],"split_type":[0,0,0,0,0,0,0,0,0,0,0,0,0,0,0,0,0,0,0,0,0,0,0,0,0,0,0,0,0,0,0,0,0,0,0,0,0,0,0,0,0,0,0,0,0,0,0,0,0,0,0,0,0,0,0,0,0,0,0,0,0,0,0,0,0,0,0,0,0],"sum_hessian":[6.88E2,5.68E2,1.2E2,4.12E2,1.56E2,7.8E1,4.2E1,2.52E2,1.6E2,1.23E2,3.3E1,3.8E1,4E1,2.4E1,1.8E1,1.54E2,9.8E1,6.4E1,9.6E1,1.06E2,1.7E1,1.4E1,1.9E1,1.8E1,2E1,1.6E1,2.4E1,1.35E2,1.9E1,6E1,3.8E1,5E1,1.4E1,7E1,2.6E1,8.9E1,1.7E1,3E1,1.05E2,4.6E1,1.4E1,1.9E1,1.9E1,3.5E1,1.5E1,1.7E1,5.3E1,4.7E1,4.2E1,6.5E1,4E1,2.4E1,2.2E1,2.1E1,1.4E1,3.5E1,1.8E1,1.4E1,3.3E1,2.8E1,1.4E1,4.8E1,1.7E1,1.7E1,2.3E1,2.1E1,1.4E1,1.5E1,1.8E1],"tree_param":{"num_deleted":"0","num_feature":"63","num_nodes":"69","size_leaf_vector":"1"}},{"base_weights":[-3.6693372E3,-3.585393E4,4.982737E4,-4.908067E4,-1.6847684E4,2.691306E4,1.0546723E5,-5.7066094E4,-3.480907E4,-4.382961E4,-6.680342E3,1.9879885E4,1.0271345E3,8.153624E4,2.317411E3,-7.076912E4,-5.088095E4,-4.034258E4,-1.4699562E2,-7.8925854E2,-3.2230803E4,-1.2892887E4,3.9737717E2,9.649488E3,5.0346664E4,5.438276E2,1.0307004E5,-1.0449597E3,-7.690107E2,-5.4065297E4,-4.2292175E2,-4.229963E4,-3.9325067E2,-5.401796E2,-2.7124298E2,-4.01719E2,-7.544696E3,-2.2652869E2,1.5294527E4,4.766209E2,9.1272095E2,9.110214E2,1.5886703E3,-5.7176945E4,-5.0615707E2,-6.2492554E2,-3.6494195E4,-1.5437241E4,-2.427567E3,3.041666E3,2.5419078E4,-9.39523E2,-6.931448E2,-5.4914954E2,-3.6026236E2,-3.1809628E2,-8.2148544E1,-1.4280792E2,3.6186306E3,-1.3719044E2,9.70475E3,1.6311131E4,4.578556E2,-3.7053505E1,1.5694763E2,7.392049E1,1.7621754E2,9.011739E1,3.480986E2],"categories":[],"categories_nodes":[],"categories_segments":[],"categories_sizes":[],"default_left":[0,0,0,0,0,0,0,0,0,0,0,0,0,0,0,0,0,0,0,0,0,0,0,0,0,0,0,0,0,0,0,0,0,0,0,0,0,0,0,0,0,0,0,0,0,0,0,0,0,0,0,0,0,0,0,0,0,0,0,0,0,0,0,0,0,0,0,0,0],"id":11,"left_children":[1,3,5,7,9,11,13,15,17,19,21,23,-1,25,-1,27,29,31,-1,-1,33,35,-1,37,39,-1,41,-1,-1,43,-1,45,-1,-1,-1,-1,47,-1,49,-1,-1,-1,-1,51,-1,-1,53,55,57,59,61,-1,-1,-1,-1,-1,-1,-1,63,-1,65,67,-1,-1,-1,-1,-1,-1,-1],"loss_changes":[1.246626E12,1.1280168E11,3.4394767E11,2.8328264E10,5.100775E10,6.8609868E10,1.2034723E11,1.0722804E10,1.2344426E10,7.7413253E9,3.187196E10,5.3124383E10,0E0,4.8344695E10,0E0,7.354122E8,5.3730673E9,3.3143194E8,0E0,0E0,2.460461E9,1.096807E10,0E0,2.0024527E10,9.063522E9,0E0,1.5285879E10,0E0,0E0,2.6517832E9,0E0,2.5320653E8,0E0,0E0,0E0,0E0,3.6781445E9,0E0,1.3320595E10,0E0,0E0,0E0,0E0,1.3307904E9,0E0,0E0,5.499822E8,2.761471E9,2.956492E9,4.6008223E9,4.5360865E9,0E0,0E0,0E0,0E0,0E0,0E0,0E0,1.863836E9,0E0,4.40715E8,2.9095772E9,0E0,0E0,0E0,0E0,0E0,0E0,0E0],"parents":[2147483647,0,0,1,1,2,2,3,3,4,4,5,5,6,6,7,7,8,8,9,9,10,10,11,11,13,13,15,15,16,16,17,17,20,20,21,21,23,23,24,24,26,26,29,29,31,31,36,36,38,38,43,43,46,46,47,47,48,48,49,49,50,50,58,58,60,60,61,61],"right_children":[2,4,6,8,10,12,14,16,18,20,22,24,-1,26,-1,28,30,32,-1,-1,34,36,-1,38,40,-1,42,-1,-1,44,-1,46,-1,-1,-1,-1,48,-1,50,-1,-1,-1,-1,52,-1,-1,54,56,58,60,62,-1,-1,-1,-1,-1,-1,-1,64,-1,66,68,-1,-1,-1,-1,-1,-1,-1],"split_conditions":[6.167045E-1,-1.3027394E-1,1.8022696E0,-2.1555157E-1,2.09788E-1,1.1119198E0,2.1106615E0,-8.7725246E-1,2.3302795E-1,3.8936684E-1,3.004337E-1,3.0406132E-1,1.0271345E3,1.363683E0,2.317411E3,-7.241875E-1,7.716101E-1,-9.6071176E-2,-1.4699562E2,-7.8925854E2,-1.04682E0,-3.5163328E-1,3.9737717E2,2.0952666E-1,1.1280937E-1,5.438276E2,1.8525636E-1,-1.0449597E3,-7.690107E2,1.0796851E-1,-4.2292175E2,3.8936684E-1,-3.9325067E2,-5.401796E2,-2.7124298E2,-4.01719E2,-1.6415723E-1,-2.2652869E2,-9.407136E-2,4.766209E2,9.1272095E2,9.110214E2,1.5886703E3,-8.884108E-1,-5.0615707E2,-6.2492554E2,-3.1354314E-1,2.774373E-1,-8.9536816E-2,1.0255418E-2,-1.356488E-1,-9.39523E2,-6.931448E2,-5.4914954E2,-3.6026236E2,-3.1809628E2,-8.2148544E1,-1.4280792E2,1.0014981E0,-1.3719044E2,-2.6926497E-2,-2.3151772E-1,4.578556E2,-3.7053505E1,1.5694763E2,7.392049E1,1.7621754E2,9.011739E1,3.480986E2],"split_indices":[7,7,11,3,11,3,7,7,0,8,1,1,0,7,0,3,9,2,0,0,2,1,0,2,0,0,1,0,0,4,0,8,0,0,0,0,0,0,1,0,0,0,0,3,0,0,1,2,1,3,0,0,0,0,0,0,0,0,27,0,4,3,0,0,0,0,0,0,0],"split_type":[0,0,0,0,0,0,0,0,0,0,0,0,0,0,0,0,0,0,0,0,0,0,0,0,0,0,0,0,0,0,0,0,0,0,0,0,0,0,0,0,0,0,0,0,0,0,0,0,0,0,0,0,0,0,0,0,0,0,0,0,0,0,0,0,0,0,0,0,0],"sum_hessian":[7.22E2,4.51E2,2.71E2,2.65E2,1.86E2,1.93E2,7.8E1,1.68E2,9.7E1,5E1,1.36E2,1.71E2,2.2E1,6E1,1.8E1,4.9E1,1.19E2,7.8E1,1.9E1,1.9E1,3.1E1,1.17E2,1.9E1,1.29E2,4.2E1,2.2E1,3.8E1,2.5E1,2.4E1,1E2,1.9E1,6.3E1,1.5E1,1.6E1,1.5E1,2.6E1,9.1E1,2.2E1,1.07E2,2.6E1,1.6E1,1.5E1,2.3E1,8.1E1,1.9E1,2.9E1,3.4E1,3.5E1,5.6E1,4.9E1,5.8E1,1.5E1,6.6E1,1.9E1,1.5E1,1.7E1,1.8E1,2.3E1,3.3E1,1.6E1,3.3E1,3.1E1,2.7E1,1.9E1,1.4E1,1.7E1,1.6E1,1.7E1,1.4E1],"tree_param":{"num_deleted":"0","num_feature":"63","num_nodes":"69","size_leaf_vector":"1"}},{"base_weights":[2.1464656E3,-1.8965643E4,1.0927253E5,-3.3500605E4,2.0678006E4,8.6382836E4,2.4245059E3,-4.9104426E4,-1.990272E4,6.835226E3,4.0120234E4,6.775003E4,1.7059352E3,-8.599186E2,-3.982875E4,-3.5924336E4,-7.800336E3,-4.261509E3,2.752216E4,2.7608896E4,9.968646E2,3.963693E2,7.966367E4,-4.598184E4,-2.6924248E4,-4.023779E4,-1.04055E2,-3.3000227E4,-1.9101971E2,-9.414141E3,8.833711E1,2.3019359E2,4.6420972E2,2.0261082E4,5.0285413E2,6.852255E2,1.1619286E3,-6.979616E2,-5.010549E2,-4.479827E2,-1.2688415E2,-7.4103595E2,-3.437883E4,-5.80141E2,-2.4896053E2,-6.378693E3,2.974298E2,-2.2143518E2,-5.952313E1,1.0936044E2,4.4591068E2,-3.9425113E4,-3.3113922E2,-1.6311923E4,3.7028796E3,-5.9342737E2,-4.3481268E2,-3.4878787E2,-1.12243935E2,-6.685753E1,2.2898854E2],"categories":[],"categories_nodes":[],"categories_segments":[],"categories_sizes":[],"default_left":[0,0,0,0,0,0,0,0,0,0,0,0,0,0,0,0,0,0,0,0,0,0,0,0,0,0,0,0,0,0,0,0,0,0,0,0,0,0,0,0,0,0,0,0,0,0,0,0,0,0,0,0,0,0,0,0,0,0,0,0,0],"id":12,"left_children":[1,3,5,7,9,11,-1,13,15,17,19,21,-1,-1,23,25,27,29,31,33,-1,-1,35,37,39,41,-1,43,45,47,-1,-1,-1,49,-1,-1,-1,-1,-1,-1,-1,-1,51,-1,-1,53,-1,-1,-1,-1,-1,55,-1,57,59,-1,-1,-1,-1,-1,-1],"loss_changes":[1.6485587E12,3.5161008E11,1.9179962E11,9.365448E10,4.3863826E10,6.777327E10,0E0,2.9032382E10,4.6255727E10,2.2384357E10,2.8452053E10,2.798705E10,0E0,0E0,9.481339E9,1.2115386E10,2.6455736E10,3.6905242E9,2.0492984E9,3.3278648E9,0E0,0E0,7.884374E9,3.0343332E9,5.4157066E9,6.546424E9,0E0,4.2027581E9,1.5290326E10,1.5264113E9,0E0,0E0,0E0,5.124442E9,0E0,0E0,0E0,0E0,0E0,0E0,0E0,0E0,2.1348434E9,0E0,0E0,8.57252E9,0E0,0E0,0E0,0E0,0E0,3.377971E7,0E0,3.2018852E9,5.297786E9,0E0,0E0,0E0,0E0,0E0,0E0],"parents":[2147483647,0,0,1,1,2,2,3,3,4,4,5,5,7,7,8,8,9,9,10,10,11,11,14,14,15,15,16,16,17,17,18,18,19,19,22,22,23,23,24,24,25,25,27,27,28,28,29,29,33,33,42,42,45,45,51,51,53,53,54,54],"right_children":[2,4,6,8,10,12,-1,14,16,18,20,22,-1,-1,24,26,28,30,32,34,-1,-1,36,38,40,42,-1,44,46,48,-1,-1,-1,50,-1,-1,-1,-1,-1,-1,-1,-1,52,-1,-1,54,-1,-1,-1,-1,-1,56,-1,58,60,-1,-1,-1,-1,-1,-1],"split_conditions":[1.363683E0,6.167045E-1,1.7528467E0,-3.1354314E-1,1.2540042E-1,6.341759E-1,2.4245059E3,-5.714456E-1,-1.3027394E-1,5.417001E-1,2.8396085E-1,-2.877397E-2,1.7059352E3,-8.599186E2,1.4161603E-1,3.4203643E-1,2.09788E-1,1.5653071E-1,7.834733E-1,9.225883E-1,9.968646E2,3.963693E2,7.6750714E-1,-3.1591022E-1,-4.4413793E-1,-1.7598816E0,-1.04055E2,1.3100643E0,1.3100643E0,7.63504E-1,8.833711E1,2.3019359E2,4.6420972E2,1.3368117E-2,5.0285413E2,6.852255E2,1.1619286E3,-6.979616E2,-5.010549E2,-4.479827E2,-1.2688415E2,-7.4103595E2,7.63504E-1,-5.80141E2,-2.4896053E2,2.0952666E-1,2.974298E2,-2.2143518E2,-5.952313E1,1.0936044E2,4.4591068E2,3.8936684E-1,-3.3113922E2,-8.12412E-2,7.914811E-2,-5.9342737E2,-4.3481268E2,-3.4878787E2,-1.12243935E2,-6.685753E1,2.2898854E2],"split_indices":[7,7,3,1,1,1,0,2,7,3,3,1,0,0,2,0,11,4,3,2,0,0,3,3,1,2,0,8,8,43,0,0,0,0,0,0,0,0,0,0,0,0,43,0,0,2,0,0,0,0,0,8,0,0,1,0,0,0,0,0,0],"split_type":[0,0,0,0,0,0,0,0,0,0,0,0,0,0,0,0,0,0,0,0,0,0,0,0,0,0,0,0,0,0,0,0,0,0,0,0,0,0,0,0,0,0,0,0,0,0,0,0,0,0,0,0,0,0,0,0,0,0,0,0,0],"sum_hessian":[7.27E2,6.08E2,1.19E2,4.45E2,1.63E2,9.3E1,2.6E1,2.06E2,2.39E2,9.6E1,6.7E1,6.7E1,2.6E1,7.2E1,1.34E2,1.02E2,1.37E2,6.3E1,3.3E1,5.1E1,1.6E1,1.7E1,5E1,8.9E1,4.5E1,8.8E1,1.4E1,3.1E1,1.06E2,4.3E1,2E1,1.6E1,1.7E1,3.2E1,1.9E1,1.4E1,3.6E1,4.3E1,4.6E1,3.1E1,1.4E1,2.1E1,6.7E1,1.6E1,1.5E1,8.4E1,2.2E1,1.6E1,2.7E1,1.8E1,1.4E1,4.1E1,2.6E1,4.2E1,4.2E1,1.8E1,2.3E1,1.7E1,2.5E1,2.6E1,1.6E1],"tree_param":{"num_deleted":"0","num_feature":"63","num_nodes":"61","size_leaf_vector":"1"}},{"base_weights":[2.5898225E3,-1.857698E4,1.0072145E5,-3.5048074E4,2.3270494E4,7.181576E4,1.8158106E5,-4.7067016E4,-1.3661081E4,1.3902742E4,9.1703033E2,4.9221652E4,1.0468194E5,1.478951E3,3.000052E3,-5.7977258E4,-3.3076574E4,-3.1018295E4,-3.2856592E3,6.911009E3,6.327176E2,2.4401295E2,7.255487E4,1.0445981E3,1.696885E3,-6.1299312E4,-4.7614938E2,-3.709395E4,-2.381387E2,-3.8819062E4,-9.319954E1,-1.234401E4,2.7833704E2,-2.1137451E2,1.3820715E4,7.3981616E2,1.0746832E3,-9.8530493E2,-5.422726E4,-3.95542E4,-3.0071878E2,-5.783612E2,-3.6007062E2,-1.9777932E4,-1.1519844E3,6.388696E3,4.5719046E2,-5.6883566E4,-5.360551E2,-6.1404346E2,-3.5154297E4,-3.8168347E2,-1.7719919E2,-1.6405554E2,1.3485416E2,-1.6154614E2,1.1563355E4,-8.066327E2,-6.1910754E2,-5.280069E2,-3.7925272E2,8.0115105E1,2.2848419E2],"categories":[],"categories_nodes":[],"categories_segments":[],"categories_sizes":[],"default_left":[0,0,0,0,0,0,0,0,0,0,0,0,0,0,0,0,0,0,0,0,0,0,0,0,0,0,0,0,0,0,0,0,0,0,0,0,0,0,0,0,0,0,0,0,0,0,0,0,0,0,0,0,0,0,0,0,0,0,0,0,0,0,0],"id":13,"left_children":[1,3,5,7,9,11,13,15,17,19,-1,21,23,-1,-1,25,27,29,31,33,-1,-1,35,-1,-1,37,-1,39,-1,41,-1,43,-1,-1,45,-1,-1,-1,47,49,-1,-1,-1,51,53,55,-1,57,-1,-1,59,-1,-1,-1,-1,-1,61,-1,-1,-1,-1,-1,-1],"loss_changes":[1.4517097E12,3.9714793E11,2.7678527E11,1.0551827E11,7.02913E10,6.390753E10,7.814742E10,3.8378996E10,2.6911349E10,3.257327E10,0E0,3.9362052E10,1.2582126E10,0E0,0E0,8.3522355E9,6.3962153E9,1.0168988E10,2.135761E10,1.852473E10,0E0,0E0,2.3229235E8,0E0,0E0,8.2656297E9,0E0,2.2974464E9,0E0,1.3128704E9,0E0,5.801261E9,0E0,0E0,1.3700012E10,0E0,0E0,0E0,7.5780915E8,8.195195E8,0E0,0E0,0E0,2.0615598E9,3.8967112E9,6.62917E9,0E0,2.3262003E8,0E0,0E0,4.9239654E8,0E0,0E0,0E0,0E0,0E0,1.5879823E9,0E0,0E0,0E0,0E0,0E0,0E0],"parents":[2147483647,0,0,1,1,2,2,3,3,4,4,5,5,6,6,7,7,8,8,9,9,11,11,12,12,15,15,16,16,17,17,18,18,19,19,22,22,25,25,27,27,29,29,31,31,34,34,38,38,39,39,43,43,44,44,45,45,47,47,50,50,56,56],"right_children":[2,4,6,8,10,12,14,16,18,20,-1,22,24,-1,-1,26,28,30,32,34,-1,-1,36,-1,-1,38,-1,40,-1,42,-1,44,-1,-1,46,-1,-1,-1,48,50,-1,-1,-1,52,54,56,-1,58,-1,-1,60,-1,-1,-1,-1,-1,62,-1,-1,-1,-1,-1,-1],"split_conditions":[1.363683E0,6.167045E-1,2.1106615E0,-8.529731E-2,1.843649E-2,4.794704E-3,1.6128669E-2,-3.38719E-1,-1.3027394E-1,9.750671E-1,9.1703033E2,9.4769657E-1,6.557441E-1,1.478951E3,3.000052E3,1.4161603E-1,1.4161603E-1,2.935238E-1,1.4527999E-1,2.0952666E-1,6.327176E2,2.4401295E2,-4.97231E-2,1.0445981E3,1.696885E3,-9.705224E-1,-4.7614938E2,-1.0000468E-1,-2.381387E2,-4.6957967E-1,-9.319954E1,-1.380017E-1,2.7833704E2,-2.1137451E2,-3.5977036E-2,7.3981616E2,1.0746832E3,-9.8530493E2,-1.17480725E-1,-4.6957967E-1,-3.0071878E2,-5.783612E2,-3.6007062E2,-2.6584777E-1,-2.6584777E-1,-7.4471545E-1,4.5719046E2,-5.374903E-1,-5.360551E2,-6.1404346E2,-1.2327782E-1,-3.8168347E2,-1.7719919E2,-1.6405554E2,1.3485416E2,-1.6154614E2,5.25734E-1,-8.066327E2,-6.1910754E2,-5.280069E2,-3.7925272E2,8.0115105E1,2.2848419E2],"split_indices":[7,7,7,6,6,6,6,3,7,3,0,3,3,0,0,2,2,0,0,2,0,0,6,0,0,3,0,6,0,2,0,3,0,0,6,0,0,0,0,2,0,0,0,2,2,3,0,2,0,0,6,0,0,0,0,0,3,0,0,0,0,0,0],"split_type":[0,0,0,0,0,0,0,0,0,0,0,0,0,0,0,0,0,0,0,0,0,0,0,0,0,0,0,0,0,0,0,0,0,0,0,0,0,0,0,0,0,0,0,0,0,0,0,0,0,0,0,0,0,0,0,0,0,0,0,0,0,0,0],"sum_hessian":[6.97E2,5.74E2,1.23E2,4.12E2,1.62E2,9.2E1,3.1E1,2.63E2,1.49E2,1.36E2,2.6E1,5.6E1,3.6E1,1.4E1,1.7E1,1.46E2,1.17E2,5.5E1,9.4E1,1.14E2,2.2E1,2.5E1,3.1E1,2E1,1.6E1,1.25E2,2.1E1,9.1E1,2.6E1,4.1E1,1.4E1,6.9E1,2.5E1,2.6E1,8.8E1,1.4E1,1.7E1,3.9E1,8.6E1,7.6E1,1.5E1,2.6E1,1.5E1,4.1E1,2.8E1,6.6E1,2.2E1,6.9E1,1.7E1,2.5E1,5.1E1,1.5E1,2.6E1,1.4E1,1.4E1,1.4E1,5.2E1,4.3E1,2.6E1,2.5E1,2.6E1,2.8E1,2.4E1],"tree_param":{"num_deleted":"0","num_feature":"63","num_nodes":"63","size_leaf_vector":"1"}},{"base_weights":[2.713074E2,-1.9043229E4,1.04671766E5,-3.2283682E4,1.6652238E4,7.626301E4,1.6950873E5,-4.7786254E4,-1.6419682E4,1.8078569E3,5.325097E4,4.3620816E2,8.581982E4,1.4631151E3,3.0362249E3,-4.4193344E4,-1.026323E3,-3.3934168E4,-8.423623E3,-1.9580457E4,8.75677E3,4.5382025E2,9.134809E2,7.0324914E4,1.3534962E3,-5.6228145E4,-3.8378953E4,-2.596857E4,-5.585967E2,-1.3963802E4,1.1809859E4,-3.05269E2,-1.9107137E2,-2.581454E3,1.9411662E4,6.597429E2,1.0905046E3,-9.3511804E2,-6.5591016E2,-4.6633027E4,-2.8936086E4,-4.120942E2,-2.0321155E2,-3.215181E4,-7.191301E3,-1.11562904E2,3.570158E2,1.9080948E3,-1.3842288E2,1.1974477E4,4.4557297E2,-6.8697955E2,-4.0413633E4,-4.4570044E2,-2.1565777E4,-3.118864E2,-5.1173312E2,-1.1029136E4,7.314102E1,-9.180576E1,1.4017361E2,3.6619354E1,2.6106885E2,-4.4710977E2,-6.325065E2,-3.3678958E2,-2.1443135E2,-1.5996294E4,-3.7975684E3,-2.6131436E2,-1.2457805E2,-1.391571E2,4.289343E1],"categories":[],"categories_nodes":[],"categories_segments":[],"categories_sizes":[],"default_left":[0,0,0,0,0,0,0,0,0,0,0,0,0,0,0,0,0,0,0,0,0,0,0,0,0,0,0,0,0,0,0,0,0,0,0,0,0,0,0,0,0,0,0,0,0,0,0,0,0,0,0,0,0,0,0,0,0,0,0,0,0,0,0,0,0,0,0,0,0,0,0,0,0],"id":14,"left_children":[1,3,5,7,9,11,13,15,17,19,21,-1,23,-1,-1,25,-1,27,29,31,33,-1,-1,35,-1,37,39,41,-1,43,45,-1,-1,47,49,-1,-1,-1,-1,51,53,-1,-1,55,57,-1,-1,59,-1,61,-1,-1,63,-1,65,-1,-1,67,-1,-1,-1,-1,-1,-1,-1,-1,-1,69,71,-1,-1,-1,-1],"loss_changes":[1.4336703E12,2.8411206E11,1.9152778E11,1.0693391E11,8.845927E10,2.960461E10,9.277761E10,2.0751352E10,3.0244364E10,1.7560648E10,1.1972174E10,0E0,1.0005774E10,0E0,0E0,1.1837014E10,0E0,3.589636E9,1.7091574E10,1.9833754E8,1.0801983E10,0E0,0E0,5.325046E9,0E0,2.3295263E9,9.406644E9,1.6857641E9,0E0,1.4427007E10,1.0570721E10,0E0,0E0,1.5957183E9,4.578263E9,0E0,0E0,0E0,0E0,4.6291354E8,1.7642004E9,0E0,0E0,9.1250074E8,4.3742346E9,0E0,0E0,2.3442742E9,0E0,2.276374E9,0E0,0E0,2.82026E8,0E0,2.241618E8,0E0,0E0,2.3818363E9,0E0,0E0,0E0,0E0,0E0,0E0,0E0,0E0,0E0,8.326492E8,1.4319817E9,0E0,0E0,0E0,0E0],"parents":[2147483647,0,0,1,1,2,2,3,3,4,4,5,5,6,6,7,7,8,8,9,9,10,10,12,12,15,15,17,17,18,18,19,19,20,20,23,23,25,25,26,26,27,27,29,29,30,30,33,33,34,34,39,39,40,40,43,43,44,44,47,47,49,49,52,52,54,54,57,57,67,67,68,68],"right_children":[2,4,6,8,10,12,14,16,18,20,22,-1,24,-1,-1,26,-1,28,30,32,34,-1,-1,36,-1,38,40,42,-1,44,46,-1,-1,48,50,-1,-1,-1,-1,52,54,-1,-1,56,58,-1,-1,60,-1,62,-1,-1,64,-1,66,-1,-1,68,-1,-1,-1,-1,-1,-1,-1,-1,-1,70,72,-1,-1,-1,-1],"split_conditions":[1.363683E0,6.167045E-1,2.1106615E0,-3.0447406E-1,2.1881196E-1,-1.3356531E-2,5.1537097E-1,4.3520455E0,2.09788E-1,7.63504E-1,3.5077953E-1,4.3620816E2,4.119834E-1,1.4631151E3,3.0362249E3,-1.0791075E0,-1.026323E3,2.9583483E0,2.8791875E-1,-4.203465E-1,-1.0314044E-1,4.5382025E2,9.134809E2,5.989863E-1,1.3534962E3,-4.4460282E-1,7.63504E-1,1.3100643E0,-5.585967E2,-1.3027394E-1,3.8936684E-1,-3.05269E2,-1.9107137E2,-1.6415723E-1,4.2092493E-1,6.597429E2,1.0905046E3,-9.3511804E2,-6.5591016E2,1.24155916E-1,-4.3416193E-1,-4.120942E2,-2.0321155E2,5.8289215E-2,2.2128032E-1,-1.11562904E2,3.570158E2,-7.54887E-2,-1.3842288E2,1.0014981E0,4.4557297E2,-6.8697955E2,4.8567453E-1,-4.4570044E2,-2.0155641E-1,-3.118864E2,-5.1173312E2,1.1382147E0,7.314102E1,-9.180576E1,1.4017361E2,3.6619354E1,2.6106885E2,-4.4710977E2,-6.325065E2,-3.3678958E2,-2.1443135E2,-8.12412E-2,-3.560703E-1,-2.6131436E2,-1.2457805E2,-1.391571E2,4.289343E1],"split_indices":[7,7,7,1,1,1,1,40,11,43,4,0,1,0,0,4,0,24,0,0,1,0,0,4,0,0,43,8,0,7,8,0,0,0,4,0,0,0,0,4,1,0,0,1,4,0,0,4,0,27,0,0,4,0,0,0,0,35,0,0,0,0,0,0,0,0,0,0,4,0,0,0,0],"split_type":[0,0,0,0,0,0,0,0,0,0,0,0,0,0,0,0,0,0,0,0,0,0,0,0,0,0,0,0,0,0,0,0,0,0,0,0,0,0,0,0,0,0,0,0,0,0,0,0,0,0,0,0,0,0,0,0,0,0,0,0,0,0,0,0,0,0,0,0,0,0,0,0,0],"sum_hessian":[7.09E2,5.99E2,1.1E2,4.37E2,1.62E2,7.8E1,3.2E1,2.2E2,2.17E2,1.16E2,4.6E1,1.5E1,6.3E1,1.8E1,1.4E1,1.99E2,2.1E1,6.7E1,1.5E2,2.8E1,8.8E1,2.3E1,2.3E1,3.6E1,2.7E1,6.2E1,1.37E2,3.7E1,3E1,1.18E2,3.2E1,1.4E1,1.4E1,4.3E1,4.5E1,1.6E1,2E1,1.5E1,4.7E1,7.1E1,6.6E1,2.3E1,1.4E1,3.1E1,8.7E1,1.4E1,1.8E1,2.8E1,1.5E1,3.1E1,1.4E1,3.3E1,3.8E1,3.7E1,2.9E1,1.6E1,1.5E1,6.7E1,2E1,1.4E1,1.4E1,1.5E1,1.6E1,2.4E1,1.4E1,1.4E1,1.5E1,3.9E1,2.8E1,2.3E1,1.6E1,1.4E1,1.4E1],"tree_param":{"num_deleted":"0","num_feature":"63","num_nodes":"73","size_leaf_vector":"1"}},{"base_weights":[5.8722736E2,-1.8634566E4,9.834819E4,-4.0266035E4,4.188246E3,4.7269973E4,1.3911064E5,-4.7308695E4,-2.0708275E4,-2.7745004E4,1.3071461E4,2.3396455E2,5.737548E4,9.933674E4,1.836882E5,-1.0199284E3,-4.3566887E4,-2.6836842E4,8.193809E1,-3.9203953E4,-3.881311E1,3.9338364E3,3.516367E4,5.9391754E2,8.597274E2,9.8720483E2,1.4581824E3,1.7232961E3,2.9329731E3,-4.894152E4,-2.3399062E4,-4.3055212E2,-1.9246977E4,-3.403423E2,-6.254541E2,-6.00023E3,2.0317555E4,1.6008151E4,8.918241E2,-5.717915E4,-4.165631E4,-4.2197934E2,-2.1082233E2,-3.2470786E2,-1.4870877E2,-3.5925867E2,-1.0291E3,8.404805E3,3.2347238E4,-4.9479668E1,2.568818E4,-7.9173303E2,-5.3999634E2,-4.4387812E4,-3.3546768E2,-5.0616475E3,1.19250404E2,-9.149535E1,3.4488565E2,2.5904858E2,5.5236426E2,4.140788E2,2.3708487E2,-6.395953E2,-4.8819067E2,-1.8579742E2,-4.9477936E2,-7.1359695E1,4.738506E1],"categories":[],"categories_nodes":[],"categories_segments":[],"categories_sizes":[],"default_left":[0,0,0,0,0,0,0,0,0,0,0,0,0,0,0,0,0,0,0,0,0,0,0,0,0,0,0,0,0,0,0,0,0,0,0,0,0,0,0,0,0,0,0,0,0,0,0,0,0,0,0,0,0,0,0,0,0,0,0,0,0,0,0,0,0,0,0,0,0],"id":15,"left_children":[1,3,5,7,9,11,13,15,17,19,21,-1,23,25,27,-1,29,31,-1,33,-1,35,37,-1,-1,-1,-1,-1,-1,39,41,-1,43,-1,-1,45,47,49,-1,51,53,-1,-1,-1,-1,-1,55,57,59,-1,61,-1,-1,63,-1,65,-1,-1,-1,-1,-1,-1,-1,-1,-1,-1,67,-1,-1],"loss_changes":[1.326627E12,2.9144633E11,2.3494472E11,4.07551E10,8.20596E10,1.473631E10,9.522656E10,2.193064E10,1.3715075E10,1.7776407E10,4.548436E10,0E0,8.90069E8,1.9072614E9,3.1224365E10,0E0,2.053374E10,2.4196424E9,0E0,3.60269E9,0E0,2.632578E10,4.0448754E10,0E0,0E0,0E0,0E0,0E0,0E0,7.0401393E9,2.3119012E9,0E0,1.1150275E9,0E0,0E0,1.0716498E10,8.4698317E9,8.330998E9,0E0,1.1534664E9,2.6832896E9,0E0,0E0,0E0,0E0,0E0,3.434637E9,8.994694E9,2.861949E9,0E0,7.288279E8,0E0,0E0,4.7818342E8,0E0,2.488964E9,0E0,0E0,0E0,0E0,0E0,0E0,0E0,0E0,0E0,0E0,8.5317715E8,0E0,0E0],"parents":[2147483647,0,0,1,1,2,2,3,3,4,4,5,5,6,6,7,7,8,8,9,9,10,10,12,12,13,13,14,14,16,16,17,17,19,19,21,21,22,22,29,29,30,30,32,32,35,35,36,36,37,37,39,39,40,40,46,46,47,47,48,48,50,50,53,53,55,55,66,66],"right_children":[2,4,6,8,10,12,14,16,18,20,22,-1,24,26,28,-1,30,32,-1,34,-1,36,38,-1,-1,-1,-1,-1,-1,40,42,-1,44,-1,-1,46,48,50,-1,52,54,-1,-1,-1,-1,-1,56,58,60,-1,62,-1,-1,64,-1,66,-1,-1,-1,-1,-1,-1,-1,-1,-1,-1,68,-1,-1],"split_conditions":[1.363683E0,7.716101E-1,1.8022696E0,-1.027249E-2,4.2819166E-1,-6.715161E-2,-3.3333488E-2,-5.313307E-1,-1.3819241E-2,6.167045E-1,5.417001E-1,2.3396455E2,7.6750714E-1,-3.400314E-2,3.739139E-2,-1.0199284E3,-8.674682E-2,-1.3027394E-1,8.193809E1,-1.1901607E-1,-3.881311E1,-1.8589316E-2,-3.9883807E-2,5.9391754E2,8.597274E2,9.8720483E2,1.4581824E3,1.7232961E3,2.9329731E3,-5.2347016E-1,1.2054625E0,-4.3055212E2,1.2054625E0,-3.403423E2,-6.254541E2,-1.3027394E-1,6.167045E-1,-7.3568635E-2,8.918241E2,-1.0181318E-1,-7.043944E-2,-4.2197934E2,-2.1082233E2,-3.2470786E2,-1.4870877E2,-3.5925867E2,1.6732232E-1,1.3100643E0,-2.8625882E-1,-4.9479668E1,-6.496987E-2,-7.9173303E2,-5.3999634E2,-4.8556954E-1,-3.3546768E2,1.1382147E0,1.19250404E2,-9.149535E1,3.4488565E2,2.5904858E2,5.5236426E2,4.140788E2,2.3708487E2,-6.395953E2,-4.8819067E2,-1.8579742E2,-7.215925E-2,-7.1359695E1,4.738506E1],"split_indices":[7,9,11,3,19,6,5,8,5,7,3,0,3,6,6,0,6,7,0,5,0,6,6,0,0,0,0,0,0,3,10,0,10,0,0,7,7,6,0,6,5,0,0,0,0,0,4,8,3,0,6,0,0,4,0,35,0,0,0,0,0,0,0,0,0,0,6,0,0],"split_type":[0,0,0,0,0,0,0,0,0,0,0,0,0,0,0,0,0,0,0,0,0,0,0,0,0,0,0,0,0,0,0,0,0,0,0,0,0,0,0,0,0,0,0,0,0,0,0,0,0,0,0,0,0,0,0,0,0,0,0,0,0,0,0,0,0,0,0,0,0],"sum_hessian":[7.04E2,5.89E2,1.15E2,3.02E2,2.87E2,5.2E1,6.3E1,2.21E2,8.1E1,6.2E1,2.25E2,1.4E1,3.8E1,3.5E1,2.8E1,2.2E1,1.99E2,6.6E1,1.5E1,4.2E1,2E1,1.6E2,6.5E1,1.8E1,2E1,1.4E1,2.1E1,1.4E1,1.4E1,1.56E2,4.3E1,3.5E1,3.1E1,1.8E1,2.4E1,1E2,6E1,4.2E1,2.3E1,7E1,8.6E1,1.8E1,2.5E1,1.7E1,1.4E1,1.8E1,8.2E1,3.1E1,2.9E1,1.4E1,2.8E1,5.6E1,1.4E1,7.2E1,1.4E1,5.9E1,2.3E1,1.7E1,1.4E1,1.4E1,1.5E1,1.4E1,1.4E1,4.1E1,3.1E1,1.9E1,4E1,1.8E1,2.2E1],"tree_param":{"num_deleted":"0","num_feature":"63","num_nodes":"69","size_leaf_vector":"1"}},{"base_weights":[-2.9785366E3,-1.9855408E4,9.070733E4,-4.065949E4,4.7679785E3,4.2731062E4,1.2277098E5,-4.7754465E4,-9.381825E3,-1.1480898E4,2.4534047E4,2.6233374E2,8.000345E2,8.2039655E2,1.3924994E5,-5.986892E4,-3.989867E4,-3.4518106E2,3.5267645E2,-7.035896E2,-6.61293E3,3.0712271E4,-2.3092813E2,1.5092303E3,2.1454949E3,-5.4567234E4,-1.0446237E3,-5.6832383E4,-3.6105984E4,-1.38778E2,8.412066E1,1.4768882E4,-1.5833183E4,2.2038562E4,7.868856E2,-7.582115E2,-5.653717E2,-8.577987E2,-5.8283203E2,-6.0717554E2,-2.9923172E4,1.8772625E1,4.5998288E2,-8.842822E3,-4.4771118E2,6.802951E1,2.827624E4,-4.8442227E2,-2.4322943E4,-1.422888E4,1.8890663E1,2.1130475E4,5.780606E2,-3.969512E2,-1.8352965E4,-3.369129E2,-2.2170994E1,1.3731635E4,4.6553397E2,-3.0005704E2,-1.6516795E2,7.73585E1,2.5560815E2],"categories":[],"categories_nodes":[],"categories_segments":[],"categories_sizes":[],"default_left":[0,0,0,0,0,0,0,0,0,0,0,0,0,0,0,0,0,0,0,0,0,0,0,0,0,0,0,0,0,0,0,0,0,0,0,0,0,0,0,0,0,0,0,0,0,0,0,0,0,0,0,0,0,0,0,0,0,0,0,0,0,0,0],"id":16,"left_children":[1,3,5,7,9,11,13,15,17,19,21,-1,-1,-1,23,25,27,-1,29,-1,31,33,-1,-1,-1,35,-1,37,39,-1,-1,41,43,45,-1,-1,-1,-1,-1,-1,47,-1,-1,49,-1,-1,51,-1,53,55,-1,57,-1,-1,59,-1,-1,61,-1,-1,-1,-1,-1],"loss_changes":[1.1496971E12,3.1575022E11,1.6550455E11,7.367144E10,9.11746E10,1.7893843E10,5.6761057E10,2.349708E10,1.0401146E10,3.1677823E10,3.3871143E10,0E0,0E0,0E0,1.1188765E10,6.6768404E9,8.737702E9,0E0,2.786773E9,0E0,2.8031382E10,2.7143873E10,0E0,0E0,0E0,7.1663616E8,0E0,1.7628365E8,7.44584E9,0E0,0E0,1.1599589E10,1.237179E10,9.102512E9,0E0,0E0,0E0,0E0,0E0,0E0,2.641281E9,0E0,0E0,4.06383E9,0E0,0E0,6.2997053E9,0E0,1.3277102E9,6.857762E9,0E0,4.4050964E9,0E0,0E0,4.682025E8,0E0,0E0,1.3293481E9,0E0,0E0,0E0,0E0,0E0],"parents":[2147483647,0,0,1,1,2,2,3,3,4,4,5,5,6,6,7,7,8,8,9,9,10,10,14,14,15,15,16,16,18,18,20,20,21,21,25,25,27,27,28,28,31,31,32,32,33,33,40,40,43,43,46,46,48,48,49,49,51,51,54,54,57,57],"right_children":[2,4,6,8,10,12,14,16,18,20,22,-1,-1,-1,24,26,28,-1,30,-1,32,34,-1,-1,-1,36,-1,38,40,-1,-1,42,44,46,-1,-1,-1,-1,-1,-1,48,-1,-1,50,-1,-1,52,-1,54,56,-1,58,-1,-1,60,-1,-1,62,-1,-1,-1,-1,-1],"split_conditions":[1.363683E0,-1.5755494E-1,1.8022696E0,4.1325855E-1,6.167045E-1,7.461356E-2,1.19958974E-1,-6.054009E-1,-3.4800565E-1,-1.9296583E0,1.600833E0,2.6233374E2,8.000345E2,8.2039655E2,2.1106615E0,4.3520455E0,4.2819166E-1,-3.4518106E2,-5.806702E-1,-7.035896E2,6.281497E-1,3.657311E-1,-2.3092813E2,1.5092303E3,2.1454949E3,-3.0628788E-1,-1.0446237E3,-8.740672E-1,-5.584083E-1,-1.38778E2,8.412066E1,1.3100643E0,2.9583483E0,-7.139865E-2,7.868856E2,-7.582115E2,-5.653717E2,-8.577987E2,-5.8283203E2,-6.0717554E2,3.8936684E-1,1.8772625E1,4.5998288E2,2.4348198E-1,-4.4771118E2,6.802951E1,1.0923649E0,-4.8442227E2,2.09788E-1,3.8936684E-1,1.8890663E1,1.318472E-1,5.780606E2,-3.969512E2,-1.5323706E-1,-3.369129E2,-2.2170994E1,9.225883E-1,4.6553397E2,-3.0005704E2,-1.6516795E2,7.73585E1,2.5560815E2],"split_indices":[7,1,11,2,7,1,1,2,1,2,47,0,0,0,7,40,19,0,0,0,18,1,0,0,0,1,0,4,1,0,0,8,24,1,0,0,0,0,0,0,8,0,0,2,0,0,2,0,11,8,0,0,0,0,0,0,0,2,0,0,0,0,0],"split_type":[0,0,0,0,0,0,0,0,0,0,0,0,0,0,0,0,0,0,0,0,0,0,0,0,0,0,0,0,0,0,0,0,0,0,0,0,0,0,0,0,0,0,0,0,0,0,0,0,0,0,0,0,0,0,0,0,0,0,0,0,0,0,0],"sum_hessian":[7.25E2,6.15E2,1.1E2,3.33E2,2.82E2,4.5E1,6.5E1,2.71E2,6.2E1,1.55E2,1.27E2,2.1E1,2.4E1,1.5E1,5E1,1.04E2,1.67E2,2.2E1,4E1,1.5E1,1.4E2,1.11E2,1.6E1,2.8E1,2.2E1,8.5E1,1.9E1,2.8E1,1.39E2,1.4E1,2.6E1,4.2E1,9.8E1,8.7E1,2.4E1,6.3E1,2.2E1,1.4E1,1.4E1,5E1,8.9E1,2.6E1,1.6E1,7.2E1,2.6E1,2.4E1,6.3E1,3.7E1,5.2E1,4.7E1,2.5E1,4.5E1,1.8E1,2.4E1,2.8E1,2.4E1,2.3E1,3.1E1,1.4E1,1.4E1,1.4E1,1.4E1,1.7E1],"tree_param":{"num_deleted":"0","num_feature":"63","num_nodes":"63","size_leaf_vector":"1"}},{"base_weights":[-1.5647507E3,-2.0041082E4,9.472038E4,-3.9321184E4,3.398896E3,7.257225E4,2.142391E3,-4.7150516E4,-2.715426E4,-3.2598562E4,1.2382524E4,5.3781832E4,1.3817805E3,-5.7190863E4,-3.9338766E4,-3.967246E4,-1.5157187E4,-4.3415996E4,-1.7742789E2,-2.9609392E3,3.4733938E4,3.8283715E4,9.198723E2,-7.816111E2,-5.6603577E2,-7.0803094E2,-3.4393082E4,-4.4484664E4,-2.98368E2,-2.0208799E4,3.308809E1,-6.494384E2,-4.2437262E2,-1.7392318E4,2.8124153E3,2.5785154E4,7.5420856E2,3.2139386E2,6.245349E2,-5.691967E2,-3.0533803E4,-4.997471E4,-4.2688467E2,-4.4120844E2,-1.4017253E4,-4.2770795E2,-8.790406E1,-2.3686726E2,8.064041E3,1.3932251E2,3.4993953E4,-3.283388E4,-2.7111752E2,-7.86445E2,-4.6285822E2,-2.3972458E2,-9.188823E1,-8.2254135E1,1.2701736E4,2.8954904E2,6.946316E2,-4.7391306E2,-3.0591165E2,7.3303955E1,1.8082406E4,1.8595665E2,2.8263596E2],"categories":[],"categories_nodes":[],"categories_segments":[],"categories_sizes":[],"default_left":[0,0,0,0,0,0,0,0,0,0,0,0,0,0,0,0,0,0,0,0,0,0,0,0,0,0,0,0,0,0,0,0,0,0,0,0,0,0,0,0,0,0,0,0,0,0,0,0,0,0,0,0,0,0,0,0,0,0,0,0,0,0,0,0,0,0,0],"id":17,"left_children":[1,3,5,7,9,11,-1,13,15,17,19,21,-1,23,25,27,29,31,-1,33,35,37,-1,-1,-1,-1,39,41,-1,43,-1,-1,-1,45,47,49,-1,-1,-1,-1,51,53,-1,-1,55,-1,-1,-1,57,-1,59,61,-1,-1,-1,-1,-1,-1,63,-1,-1,-1,-1,-1,65,-1,-1],"loss_changes":[1.2596485E12,2.6857718E11,1.6154683E11,2.9774119E10,8.7394976E10,4.8593895E10,0E0,1.3201375E10,1.8922308E10,1.0549875E10,7.4179625E10,1.2034523E10,0E0,2.788393E8,6.409437E9,4.116144E9,6.1245245E9,6.945505E8,0E0,1.0796869E10,1.6462979E10,2.9523722E9,0E0,0E0,0E0,0E0,1.7375232E9,1.5157985E9,0E0,3.939285E9,0E0,0E0,0E0,5.8035323E9,1.0342582E10,8.701972E9,0E0,0E0,0E0,0E0,7.9456256E8,2.434261E9,0E0,0E0,1.0081797E9,0E0,0E0,0E0,5.0666583E9,0E0,8.117723E9,7.6129894E8,0E0,0E0,0E0,0E0,0E0,0E0,2.0798024E9,0E0,0E0,0E0,0E0,0E0,1.2778803E8,0E0,0E0],"parents":[2147483647,0,0,1,1,2,2,3,3,4,4,5,5,7,7,8,8,9,9,10,10,11,11,13,13,14,14,15,15,16,16,17,17,19,19,20,20,21,21,26,26,27,27,29,29,33,33,34,34,35,35,40,40,41,41,44,44,48,48,50,50,51,51,58,58,64,64],"right_children":[2,4,6,8,10,12,-1,14,16,18,20,22,-1,24,26,28,30,32,-1,34,36,38,-1,-1,-1,-1,40,42,-1,44,-1,-1,-1,46,48,50,-1,-1,-1,-1,52,54,-1,-1,56,-1,-1,-1,58,-1,60,62,-1,-1,-1,-1,-1,-1,64,-1,-1,-1,-1,-1,66,-1,-1],"split_conditions":[1.363683E0,7.716101E-1,2.1106615E0,-1.04897305E-1,-1.3027394E-1,2.0564007E-2,2.142391E3,-4.6957967E-1,-7.0140153E-1,7.63504E-1,-3.858763E-2,7.1229815E-1,1.3817805E3,-6.9819026E-2,-1.0791075E0,-6.662045E-2,-3.109504E-2,-3.9883807E-2,-1.7742789E2,3.113926E-1,5.989863E-1,-4.8630495E-2,9.198723E2,-7.816111E2,-5.6603577E2,-7.0803094E2,-1.379453E-1,1.2054625E0,-2.98368E2,-1.3027394E-1,3.308809E1,-6.494384E2,-4.2437262E2,-8.087982E-2,7.63504E-1,6.167045E-1,7.5420856E2,3.2139386E2,6.245349E2,-5.691967E2,-6.055973E-2,-7.6497436E-2,-4.2688467E2,-4.4120844E2,-2.6584777E-1,-4.2770795E2,-8.790406E1,-2.3686726E2,-5.0715274E-1,1.3932251E2,1.0796937E-2,1.4161603E-1,-2.7111752E2,-7.86445E2,-4.6285822E2,-2.3972458E2,-9.188823E1,-8.2254135E1,-7.7326536E-2,2.8954904E2,6.946316E2,-4.7391306E2,-3.0591165E2,7.3303955E1,1.0244542E0,1.8595665E2,2.8263596E2],"split_indices":[7,9,7,6,7,6,0,2,4,43,6,4,0,5,4,5,5,6,0,2,4,6,0,0,0,0,6,10,0,7,0,0,0,6,43,7,0,0,0,0,5,6,0,0,2,0,0,0,4,0,6,2,0,0,0,0,0,0,6,0,0,0,0,0,2,0,0],"split_type":[0,0,0,0,0,0,0,0,0,0,0,0,0,0,0,0,0,0,0,0,0,0,0,0,0,0,0,0,0,0,0,0,0,0,0,0,0,0,0,0,0,0,0,0,0,0,0,0,0,0,0,0,0,0,0,0,0,0,0,0,0,0,0,0,0,0,0],"sum_hessian":[7.06E2,5.93E2,1.13E2,3.25E2,2.68E2,8.7E1,2.6E1,1.96E2,1.29E2,5.3E1,2.15E2,5.7E1,3E1,8.3E1,1.13E2,6.2E1,6.7E1,3.3E1,2E1,1.28E2,8.7E1,3.1E1,2.6E1,6.8E1,1.5E1,2.6E1,8.7E1,4.7E1,1.5E1,5.2E1,1.5E1,1.9E1,1.4E1,3.6E1,9.2E1,6.4E1,2.3E1,1.4E1,1.7E1,2.3E1,6.4E1,3E1,1.7E1,1.5E1,3.7E1,1.4E1,2.2E1,1.8E1,7.4E1,2.5E1,3.9E1,5E1,1.4E1,1.6E1,1.4E1,2.2E1,1.5E1,1.8E1,5.6E1,2.4E1,1.5E1,3.5E1,1.5E1,2.5E1,3.1E1,1.7E1,1.4E1],"tree_param":{"num_deleted":"0","num_feature":"63","num_nodes":"67","size_leaf_vector":"1"}},{"base_weights":[-1.3230951E3,-1.9905645E4,9.400398E4,-3.2558506E4,1.6538969E4,7.407049E4,2.3686072E3,-4.458179E4,-1.4305674E4,2.2428246E4,-2.357363E2,3.9901977E4,9.674892E4,-5.3326703E4,-2.879604E4,-2.9039275E4,-4.162984E3,2.3414302E3,3.1776078E4,1.6629488E2,7.541611E2,8.389448E2,1.1551474E5,-1.0306973E3,-5.0189348E4,-3.2603086E4,-2.167007E2,-5.649805E2,-1.9650857E4,-1.4377535E4,1.1136883E4,-8.4589745E1,1.5550679E2,2.5412068E4,7.817214E2,1.2226583E3,1.8222598E3,-6.1115684E4,-4.608317E4,-5.2363934E2,-2.7950984E4,-2.7930986E4,-3.7989548E1,-3.545735E2,-9.948429E3,-2.0478611E1,3.3851834E2,1.6418084E4,5.7480774E2,-9.696717E2,-6.271435E2,-4.7605062E4,-4.2824683E2,-4.573847E2,-2.6454724E2,-4.434123E2,-2.5945728E2,-2.4044524E2,-5.7075127E3,6.1928864E1,2.0602402E4,-6.4910126E2,-4.4959863E2,4.0250404E1,-1.7936673E2,1.6720073E2,3.299832E2],"categories":[],"categories_nodes":[],"categories_segments":[],"categories_sizes":[],"default_left":[0,0,0,0,0,0,0,0,0,0,0,0,0,0,0,0,0,0,0,0,0,0,0,0,0,0,0,0,0,0,0,0,0,0,0,0,0,0,0,0,0,0,0,0,0,0,0,0,0,0,0,0,0,0,0,0,0,0,0,0,0,0,0,0,0,0,0],"id":18,"left_children":[1,3,5,7,9,11,-1,13,15,17,-1,19,21,23,25,27,29,31,33,-1,-1,-1,35,-1,37,39,-1,-1,41,43,45,-1,-1,47,-1,-1,-1,49,51,-1,53,55,-1,-1,57,-1,-1,59,-1,-1,-1,61,-1,-1,-1,-1,-1,-1,63,-1,65,-1,-1,-1,-1,-1,-1],"loss_changes":[1.2595794E12,2.7491002E11,1.8697401E11,9.6363086E10,3.1709688E10,7.052876E10,0E0,3.5184378E10,2.6329702E10,2.4711E10,0E0,1.8451415E10,2.7653865E10,9.539748E9,3.991675E9,8.651506E9,1.6725937E10,3.675645E9,1.4433591E10,0E0,0E0,0E0,5.3262746E9,0E0,4.0928543E9,1.3745439E9,0E0,0E0,6.161494E9,3.321176E9,8.0572186E9,0E0,0E0,1.1710902E10,0E0,0E0,0E0,3.1148442E9,8.144814E8,0E0,1.8834186E9,7.68981E8,0E0,0E0,1.6388495E9,0E0,0E0,2.4473016E9,0E0,0E0,0E0,8.847032E8,0E0,0E0,0E0,0E0,0E0,0E0,2.421288E9,0E0,1.0408714E9,0E0,0E0,0E0,0E0,0E0,0E0],"parents":[2147483647,0,0,1,1,2,2,3,3,4,4,5,5,7,7,8,8,9,9,11,11,12,12,13,13,14,14,15,15,16,16,17,17,18,18,22,22,24,24,25,25,28,28,29,29,30,30,33,33,37,37,38,38,40,40,41,41,44,44,47,47,51,51,58,58,60,60],"right_children":[2,4,6,8,10,12,-1,14,16,18,-1,20,22,24,26,28,30,32,34,-1,-1,-1,36,-1,38,40,-1,-1,42,44,46,-1,-1,48,-1,-1,-1,50,52,-1,54,56,-1,-1,58,-1,-1,60,-1,-1,-1,62,-1,-1,-1,-1,-1,-1,64,-1,66,-1,-1,-1,-1,-1,-1],"split_conditions":[1.363683E0,6.167045E-1,1.7596893E0,-8.529731E-2,1.600833E0,-4.245793E-2,2.3686072E3,-2.0870894E-1,-1.3027394E-1,-7.286513E-2,-2.357363E2,9.4769657E-1,1.8022696E0,-5.313307E-1,-1.0000468E-1,-7.561693E-2,-5.9642006E-2,5.25734E-1,-1.11163985E-2,1.6629488E2,7.541611E2,8.389448E2,-4.5247637E-2,-1.0306973E3,-9.705224E-1,-7.6615113E-1,-2.167007E2,-5.649805E2,4.8011643E-1,-7.584007E-1,-3.4662623E-2,-8.4589745E1,1.5550679E2,5.3963256E-1,7.817214E2,1.2226583E3,1.8222598E3,-1.2528743E-1,-9.3821995E-2,-5.2363934E2,-8.406835E-2,-2.535501E-1,-3.7989548E1,-3.545735E2,-9.666768E-2,-2.0478611E1,3.3851834E2,-8.653224E-2,5.7480774E2,-9.696717E2,-6.271435E2,1.5653071E-1,-4.2824683E2,-4.573847E2,-2.6454724E2,-4.434123E2,-2.5945728E2,-2.4044524E2,-8.053466E-2,6.1928864E1,-4.5504382E-1,-6.4910126E2,-4.4959863E2,4.0250404E1,-1.7936673E2,1.6720073E2,3.299832E2],"split_indices":[7,7,3,6,47,6,0,3,7,6,0,3,11,8,6,5,5,3,5,0,0,0,5,0,3,4,0,0,3,3,6,0,0,4,0,0,0,6,6,0,5,4,0,0,5,0,0,5,0,0,0,4,0,0,0,0,0,0,5,0,3,0,0,0,0,0,0],"split_type":[0,0,0,0,0,0,0,0,0,0,0,0,0,0,0,0,0,0,0,0,0,0,0,0,0,0,0,0,0,0,0,0,0,0,0,0,0,0,0,0,0,0,0,0,0,0,0,0,0,0,0,0,0,0,0,0,0,0,0,0,0,0,0,0,0,0,0],"sum_hessian":[7.09E2,5.94E2,1.15E2,4.41E2,1.53E2,9.5E1,2E1,2.65E2,1.76E2,1.31E2,2.2E1,3.9E1,5.6E1,1.69E2,9.6E1,7.1E1,1.05E2,4.2E1,8.9E1,1.6E1,2.3E1,2.2E1,3.4E1,1.6E1,1.53E2,7.2E1,2.4E1,2.7E1,4.4E1,6.3E1,4.2E1,2.2E1,2E1,7.4E1,1.5E1,2E1,1.4E1,3.8E1,1.15E2,2.5E1,4.7E1,2.9E1,1.5E1,1.5E1,4.8E1,2.3E1,1.9E1,5.1E1,2.3E1,1.7E1,2.1E1,1.01E2,1.4E1,2.3E1,2.4E1,1.5E1,1.4E1,1.5E1,3.3E1,1.4E1,3.7E1,8.6E1,1.5E1,1.6E1,1.7E1,1.5E1,2.2E1],"tree_param":{"num_deleted":"0","num_feature":"63","num_nodes":"67","size_leaf_vector":"1"}},{"base_weights":[-1.4949293E3,-1.8869232E4,9.520369E4,-3.184791E4,1.6798264E4,4.763443E4,1.2360227E5,-4.5931727E4,-1.6556637E4,7.856296E3,5.7228727E4,2.597001E2,8.176344E2,1.0292792E3,1.5208211E5,-6.426555E4,-3.889227E4,-3.0127416E4,-5.583689E3,2.0591025E3,5.8712366E2,4.293443E2,1.0213332E3,1.2491282E3,2.4385571E3,-1.00649854E3,-5.5991094E4,-4.311994E4,-2.6742352E4,-3.7187664E4,-1.16314285E2,-4.9933105E2,9.721386E2,8.374768E3,-2.788134E2,-8.5573694E2,-5.9019617E2,-5.9667114E2,-3.8488852E2,-4.4071088E2,-2.4969385E2,-4.0976086E4,-3.525306E2,-7.082858E3,1.912948E4,-1.07087875E2,1.2792179E4,-4.4761685E2,-6.309939E2,-2.2104056E2,-3.3747378E3,7.434821E0,4.7851895E2,9.025015E3,3.234692E2,-1.7712328E2,7.144667E2,2.3462566E3,2.1448933E2,-1.18431274E2,8.885171E1,9.4392044E1,-2.7190264E1],"categories":[],"categories_nodes":[],"categories_segments":[],"categories_sizes":[],"default_left":[0,0,0,0,0,0,0,0,0,0,0,0,0,0,0,0,0,0,0,0,0,0,0,0,0,0,0,0,0,0,0,0,0,0,0,0,0,0,0,0,0,0,0,0,0,0,0,0,0,0,0,0,0,0,0,0,0,0,0,0,0,0,0],"id":19,"left_children":[1,3,5,7,9,11,13,15,17,19,21,-1,-1,-1,23,25,27,29,31,33,-1,-1,-1,-1,-1,-1,35,37,39,41,-1,-1,43,45,-1,-1,-1,-1,-1,-1,-1,47,-1,49,51,-1,53,-1,-1,-1,55,-1,-1,57,-1,-1,59,61,-1,-1,-1,-1,-1],"loss_changes":[1.1912867E12,2.7874814E11,1.4000947E11,9.421305E10,5.775638E10,1.597576E10,7.411827E10,2.7055358E10,3.1549915E10,2.8376588E10,1.2123357E10,0E0,0E0,0E0,5.9329348E10,2.1142405E9,7.4763305E9,1.3927145E10,2.5391649E10,1.726566E10,0E0,0E0,0E0,0E0,0E0,0E0,1.236648E9,2.7067515E9,1.7928499E9,1.6688415E9,0E0,0E0,1.4761224E10,6.8272963E9,0E0,0E0,0E0,0E0,0E0,0E0,0E0,8.0091546E8,0E0,2.4805844E9,9.9728E9,0E0,3.0439967E9,0E0,0E0,0E0,2.1646031E9,0E0,0E0,2.7535708E9,0E0,0E0,2.3065953E9,6.798884E8,0E0,0E0,0E0,0E0,0E0],"parents":[2147483647,0,0,1,1,2,2,3,3,4,4,5,5,6,6,7,7,8,8,9,9,10,10,14,14,15,15,16,16,17,17,18,18,19,19,26,26,27,27,28,28,29,29,32,32,33,33,41,41,43,43,44,44,46,46,50,50,53,53,56,56,57,57],"right_children":[2,4,6,8,10,12,14,16,18,20,22,-1,-1,-1,24,26,28,30,32,34,-1,-1,-1,-1,-1,-1,36,38,40,42,-1,-1,44,46,-1,-1,-1,-1,-1,-1,-1,48,-1,50,52,-1,54,-1,-1,-1,56,-1,-1,58,-1,-1,60,62,-1,-1,-1,-1,-1],"split_conditions":[1.363683E0,6.167045E-1,1.8022696E0,-9.75601E-2,5.3532817E-3,-4.500774E-2,-1.6847529E-2,-6.443568E-1,-1.3027394E-1,9.750671E-1,5.3592112E-2,2.597001E2,8.176344E2,1.0292792E3,8.883937E-1,-8.7725246E-1,1.2536297E-2,-3.7449922E-2,-8.848588E-1,1.600833E0,5.8712366E2,4.293443E2,1.0213332E3,1.2491282E3,2.4385571E3,-1.00649854E3,-1.2528743E-1,-6.735611E-2,-3.129039E-1,-2.7155794E-2,-1.16314285E2,-4.9933105E2,-4.510361E-2,-4.8556954E-1,-2.788134E2,-8.5573694E2,-5.9019617E2,-5.9667114E2,-3.8488852E2,-4.4071088E2,-2.4969385E2,7.716101E-1,-3.525306E2,-6.603229E-1,-3.4662623E-2,-1.07087875E2,-3.4662623E-2,-4.4761685E2,-6.309939E2,-2.2104056E2,-9.016191E-2,7.434821E0,4.7851895E2,5.417001E-1,3.234692E2,-1.7712328E2,-7.159284E-2,-9.246259E-2,2.1448933E2,-1.18431274E2,8.885171E1,9.4392044E1,-2.7190264E1],"split_indices":[7,7,11,6,6,6,6,3,7,3,3,0,0,0,3,7,3,5,4,47,0,0,0,0,0,0,6,5,4,6,0,0,5,4,0,0,0,0,0,0,0,9,0,3,6,0,6,0,0,0,5,0,0,3,0,0,6,5,0,0,0,0,0],"split_type":[0,0,0,0,0,0,0,0,0,0,0,0,0,0,0,0,0,0,0,0,0,0,0,0,0,0,0,0,0,0,0,0,0,0,0,0,0,0,0,0,0,0,0,0,0,0,0,0,0,0,0,0,0,0,0,0,0,0,0,0,0,0,0],"sum_hessian":[7.07E2,6E2,1.07E2,4.4E2,1.6E2,4.1E1,6.6E1,2.28E2,2.12E2,1.32E2,2.8E1,1.5E1,2.6E1,2.7E1,3.9E1,6.1E1,1.67E2,9.4E1,1.18E2,1.15E2,1.7E1,1.4E1,1.4E1,1.6E1,2.3E1,2.1E1,4E1,1.22E2,4.5E1,7E1,2.4E1,1.9E1,9.9E1,9.1E1,2.4E1,1.9E1,2.1E1,1.02E2,2E1,2.2E1,2.3E1,4.9E1,2.1E1,6.9E1,3E1,1.9E1,7.2E1,2.8E1,2.1E1,1.8E1,5.1E1,1.5E1,1.5E1,5.6E1,1.6E1,1.4E1,3.7E1,3E1,2.6E1,1.4E1,2.3E1,1.4E1,1.6E1],"tree_param":{"num_deleted":"0","num_feature":"63","num_nodes":"63","size_leaf_vector":"1"}},{"base_weights":[-1.9662944E3,-1.8239012E4,9.0469E4,-3.161001E4,1.7365453E4,4.127831E4,1.2338839E5,-4.2963445E4,-1.2928902E4,7.4834995E3,3.9944277E4,2.7783283E4,8.5901465E2,7.971757E4,1.6067345E5,-5.0281875E4,-2.8098238E4,-1.9553186E4,1.261277E4,-1.3763861E3,2.802713E4,2.6938725E4,8.33962E2,1.4231113E2,5.767586E2,7.9329346E2,1.2060089E3,1.543047E3,2.4407385E3,-4.703486E4,-9.3892255E2,-4.556221E2,-1.8582213E4,-1.1070571E4,-5.41016E2,-5.3489643E1,4.607522E2,5.001485E3,-2.2286768E2,1.8736952E2,4.7862427E2,2.171513E2,4.6207803E2,-7.7491547E2,-4.402736E4,-3.6207382E2,-1.5809578E2,-1.9737047E4,-6.173764E2,-8.030914E2,2.0379419E2,-4.9477836E4,-4.6541772E2,-2.5924037E4,-3.061605E1,-7.0200273E3,1.659373E2,5.204235E1,-8.642161E1,-5.2410812E4,-4.567612E2,-4.0554086E2,-2.2019792E2,-2.1593524E2,3.760271E1,-8.113497E2,-6.1948315E2],"categories":[],"categories_nodes":[],"categories_segments":[],"categories_sizes":[],"default_left":[0,0,0,0,0,0,0,0,0,0,0,0,0,0,0,0,0,0,0,0,0,0,0,0,0,0,0,0,0,0,0,0,0,0,0,0,0,0,0,0,0,0,0,0,0,0,0,0,0,0,0,0,0,0,0,0,0,0,0,0,0,0,0,0,0,0,0],"id":20,"left_children":[1,3,5,7,9,11,13,15,17,19,21,23,-1,25,27,29,31,33,35,37,39,41,-1,-1,-1,-1,-1,-1,-1,43,-1,-1,45,47,-1,-1,-1,49,-1,-1,-1,-1,-1,-1,51,-1,-1,53,55,57,-1,59,-1,61,-1,63,-1,-1,-1,65,-1,-1,-1,-1,-1,-1,-1],"loss_changes":[1.06510064E12,2.8714143E11,1.6655548E11,9.234203E10,3.6516356E10,1.2571902E10,8.977246E10,2.8178055E10,2.8502227E10,2.1152227E10,1.3673046E10,7.753089E9,0E0,1.7394237E9,1.4236844E10,9.167077E9,5.1777044E9,2.403586E10,1.3305264E10,8.2548756E9,3.5540132E9,2.3459226E9,0E0,0E0,0E0,0E0,0E0,0E0,0E0,3.2047432E9,0E0,0E0,2.0243794E9,8.775273E9,0E0,0E0,0E0,3.622719E9,0E0,0E0,0E0,0E0,0E0,0E0,4.380885E9,0E0,0E0,5.6457585E9,3.9131397E9,1.1034716E9,0E0,1.5236137E9,0E0,1.2630753E9,0E0,2.9436685E9,0E0,0E0,0E0,1.5681126E8,0E0,0E0,0E0,0E0,0E0,0E0,0E0],"parents":[2147483647,0,0,1,1,2,2,3,3,4,4,5,5,6,6,7,7,8,8,9,9,10,10,11,11,13,13,14,14,15,15,16,16,17,17,18,18,19,19,20,20,21,21,29,29,32,32,33,33,37,37,44,44,47,47,48,48,49,49,51,51,53,53,55,55,59,59],"right_children":[2,4,6,8,10,12,14,16,18,20,22,24,-1,26,28,30,32,34,36,38,40,42,-1,-1,-1,-1,-1,-1,-1,44,-1,-1,46,48,-1,-1,-1,50,-1,-1,-1,-1,-1,-1,52,-1,-1,54,56,58,-1,60,-1,62,-1,64,-1,-1,-1,66,-1,-1,-1,-1,-1,-1,-1],"split_conditions":[1.363683E0,6.167045E-1,1.8022696E0,-8.529731E-2,-1.8589316E-2,-2.5713288E-3,1.3281359E-1,-1.4940609E-1,1.3100643E0,5.417001E-1,2.7255645E-1,5.25734E-1,8.5901465E2,1.2054625E0,7.814727E-2,4.3520455E0,-1.3027394E-1,1.600833E0,1.3368117E-2,1.600833E0,-7.538664E-2,-3.318764E-1,8.33962E2,1.4231113E2,5.767586E2,7.9329346E2,1.2060089E3,1.543047E3,2.4407385E3,-8.7725246E-1,-9.3892255E2,-4.556221E2,-1.1310289E-1,2.4095016E-2,-5.41016E2,-5.3489643E1,4.607522E2,-4.579957E-2,-2.2286768E2,1.8736952E2,4.7862427E2,2.171513E2,4.6207803E2,-7.7491547E2,2.09788E-1,-3.6207382E2,-1.5809578E2,1.1382147E0,-2.3586793E-2,-1.9411524E-1,2.0379419E2,-1.17480725E-1,-4.6541772E2,3.8936684E-1,-3.061605E1,1.24299355E-1,1.659373E2,5.204235E1,-8.642161E1,-8.1086093E-1,-4.567612E2,-4.0554086E2,-2.2019792E2,-2.1593524E2,3.760271E1,-8.113497E2,-6.1948315E2],"split_indices":[7,7,11,6,6,6,0,3,8,3,3,3,0,10,6,40,7,47,0,47,6,3,0,0,0,0,0,0,0,7,0,0,6,0,0,0,0,6,0,0,0,0,0,0,11,0,0,35,6,0,0,0,0,8,0,3,0,0,0,3,0,0,0,0,0,0,0],"split_type":[0,0,0,0,0,0,0,0,0,0,0,0,0,0,0,0,0,0,0,0,0,0,0,0,0,0,0,0,0,0,0,0,0,0,0,0,0,0,0,0,0,0,0,0,0,0,0,0,0,0,0,0,0,0,0,0,0,0,0,0,0,0,0,0,0,0,0],"sum_hessian":[7.06E2,6.01E2,1.05E2,4.37E2,1.64E2,4.3E1,6.2E1,2.71E2,1.66E2,1.15E2,4.9E1,2.9E1,1.4E1,3E1,3.2E1,1.8E2,9.1E1,1.32E2,3.4E1,8.1E1,3.4E1,3.3E1,1.6E1,1.5E1,1.4E1,1.4E1,1.6E1,1.4E1,1.8E1,1.59E2,2.1E1,5.2E1,3.9E1,9.6E1,3.6E1,2E1,1.4E1,5.8E1,2.3E1,1.4E1,2E1,1.6E1,1.7E1,2.8E1,1.31E2,1.5E1,2.4E1,5.2E1,4.4E1,3.8E1,2E1,7.7E1,5.4E1,3.8E1,1.4E1,3E1,1.4E1,2.1E1,1.7E1,6.2E1,1.5E1,2.3E1,1.5E1,1.5E1,1.5E1,1.8E1,4.4E1],"tree_param":{"num_deleted":"0","num_feature":"63","num_nodes":"67","size_leaf_vector":"1"}},{"base_weights":[-3.2318588E2,-1.8585648E4,9.51052E4,-3.17068E4,1.6355936E4,6.0343348E4,1.3947298E5,-4.227226E4,-1.3964737E4,6.2979463E3,3.8806566E4,3.4350957E4,8.865636E4,1.3478193E3,2.4345188E3,-5.0297785E4,-2.9441664E4,-2.4356027E4,3.5868245E3,-2.4155672E2,1.2968556E4,2.203729E2,4.8017605E4,1.7361769E2,6.266377E2,8.98793E2,1.3369034E3,-5.295073E4,-3.9452332E2,-3.4175867E4,-1.604446E2,-3.1559104E4,-3.462928E1,-9.842684E3,3.1652563E2,2.5238586E3,2.6026666E4,4.362018E2,8.198668E2,-8.731355E2,-4.816551E4,-5.5114136E2,-2.9230656E4,-4.112683E4,-2.3482498E4,-3.303291E2,7.901799E1,-1.5212431E2,8.909476E3,1.9516516E2,4.4525696E2,-7.248588E2,-5.788374E2,-4.816802E2,-2.4991582E4,-6.563465E2,-3.549372E2,-4.1904675E2,-1.1323363E2,2.1495722E1,2.4247656E2,-3.7942358E2,-2.2648311E2],"categories":[],"categories_nodes":[],"categories_segments":[],"categories_sizes":[],"default_left":[0,0,0,0,0,0,0,0,0,0,0,0,0,0,0,0,0,0,0,0,0,0,0,0,0,0,0,0,0,0,0,0,0,0,0,0,0,0,0,0,0,0,0,0,0,0,0,0,0,0,0,0,0,0,0,0,0,0,0,0,0,0,0],"id":21,"left_children":[1,3,5,7,9,11,13,15,17,19,21,23,25,-1,-1,27,29,31,33,-1,35,-1,37,-1,-1,-1,-1,39,-1,41,-1,43,-1,45,-1,47,49,-1,-1,-1,51,-1,53,55,57,-1,-1,-1,59,-1,-1,-1,-1,-1,61,-1,-1,-1,-1,-1,-1,-1,-1],"loss_changes":[1.2042701E12,2.664334E11,1.6277989E11,7.851488E10,3.56591E10,4.4053627E10,6.225553E10,2.5703842E10,2.908632E10,1.8543516E10,9.121923E9,9.298612E9,1.0376151E9,0E0,0E0,7.037944E9,8.0526295E9,1.5558038E10,1.679972E10,0E0,1.1936459E10,0E0,5.197398E9,0E0,0E0,0E0,0E0,5.9974287E9,0E0,1.9194266E9,0E0,4.8298476E9,0E0,9.165582E9,0E0,4.613621E9,2.9414625E9,0E0,0E0,0E0,6.4854426E8,0E0,7.684301E8,2.7880817E9,5.1361853E9,0E0,0E0,0E0,2.408346E9,0E0,0E0,0E0,0E0,0E0,6.271775E8,0E0,0E0,0E0,0E0,0E0,0E0,0E0,0E0],"parents":[2147483647,0,0,1,1,2,2,3,3,4,4,5,5,6,6,7,7,8,8,9,9,10,10,11,11,12,12,15,15,16,16,17,17,18,18,20,20,22,22,27,27,29,29,31,31,33,33,35,35,36,36,40,40,42,42,43,43,44,44,48,48,54,54],"right_children":[2,4,6,8,10,12,14,16,18,20,22,24,26,-1,-1,28,30,32,34,-1,36,-1,38,-1,-1,-1,-1,40,-1,42,-1,44,-1,46,-1,48,50,-1,-1,-1,52,-1,54,56,58,-1,-1,-1,60,-1,-1,-1,-1,-1,62,-1,-1,-1,-1,-1,-1,-1,-1],"split_conditions":[1.363683E0,6.167045E-1,7.034145E-3,-8.529731E-2,-1.8589316E-2,1.1575373E0,1.1735035E0,-1.8590015E-1,9.9569865E-2,7.63504E-1,-4.0942627E-1,1.5653071E-1,-4.0529616E-2,1.3478193E3,2.4345188E3,1.4161603E-1,1.4161603E-1,2.4348198E-1,-2.17006E-2,-2.4155672E2,2.4825932E-1,2.203729E2,6.903203E-2,1.7361769E2,6.266377E2,8.98793E2,1.3369034E3,-9.956121E-1,-3.9452332E2,-4.6957967E-1,-1.604446E2,3.8936684E-1,-3.462928E1,5.4483046E-3,3.1652563E2,6.849011E-1,-7.002737E-2,4.362018E2,8.198668E2,-8.731355E2,-3.8198093E-1,-5.5114136E2,7.63504E-1,-4.6957967E-1,-4.3161154E-1,-3.303291E2,7.901799E1,-1.5212431E2,6.443397E-1,1.9516516E2,4.4525696E2,-7.248588E2,-5.788374E2,-4.816802E2,1.7904045E-1,-6.563465E2,-3.549372E2,-4.1904675E2,-1.1323363E2,2.1495722E1,2.4247656E2,-3.7942358E2,-2.2648311E2],"split_indices":[7,7,6,6,6,3,3,3,0,43,3,4,6,0,0,2,2,2,6,0,4,0,0,0,0,0,0,3,0,2,0,8,0,4,0,2,6,0,0,0,0,0,43,2,4,0,0,0,3,0,0,0,0,0,3,0,0,0,0,0,0,0,0],"split_type":[0,0,0,0,0,0,0,0,0,0,0,0,0,0,0,0,0,0,0,0,0,0,0,0,0,0,0,0,0,0,0,0,0,0,0,0,0,0,0,0,0,0,0,0,0,0,0,0,0,0,0,0,0,0,0,0,0,0,0,0,0,0,0],"sum_hessian":[6.89E2,5.79E2,1.1E2,4.21E2,1.58E2,6.3E1,4.7E1,2.63E2,1.58E2,1.1E2,4.8E1,3.4E1,2.9E1,2.8E1,1.9E1,1.6E2,1.03E2,9.9E1,5.9E1,2.3E1,8.7E1,1.5E1,3.3E1,1.4E1,2E1,1.4E1,1.5E1,1.4E2,2E1,8E1,2.3E1,7.4E1,2.5E1,3.6E1,2.3E1,4.9E1,3.8E1,1.8E1,1.5E1,3.3E1,1.07E2,2.8E1,5.2E1,3.2E1,4.2E1,1.8E1,1.8E1,1.5E1,3.4E1,1.7E1,2.1E1,3.4E1,7.3E1,1.6E1,3.6E1,1.8E1,1.4E1,2.6E1,1.6E1,2E1,1.4E1,2.2E1,1.4E1],"tree_param":{"num_deleted":"0","num_feature":"63","num_nodes":"63","size_leaf_vector":"1"}},{"base_weights":[-6.583216E2,-1.3686591E4,8.9066555E4,-3.5902754E4,1.0168567E4,5.147584E4,1.5324169E5,-4.1229312E4,-3.1455525E3,1.29629E3,3.9506305E4,-1.6392232E2,7.2596664E4,1.2283225E3,2.7133428E3,-9.4680383E2,-3.8326297E4,-2.7679834E2,1.7640178E2,-1.0032346E4,2.2096455E4,2.6856613E4,7.891706E2,4.185927E2,1.2523447E3,-4.3666543E4,-2.510725E4,-3.4741484E4,8.6031024E2,-1.4594107E2,3.489182E4,3.1125503E0,6.4284564E2,-5.4796027E4,-3.75859E4,-4.7022577E2,-2.1999658E4,-5.3382043E2,-2.8021017E2,4.85022E3,-2.7714896E2,2.3034424E2,4.9413414E4,-7.708838E2,-5.2609296E2,-3.946897E4,-3.382211E2,-4.4886792E2,-1.7160484E4,-6.780702E1,9.13633E3,4.4933517E2,8.0593335E2,-5.490133E2,-3.7428174E2,-3.051006E2,-1.3511389E2,5.8047637E3,2.4061818E2,2.8945227E3,1.4121295E2,-4.1610588E1,1.0592059E2],"categories":[],"categories_nodes":[],"categories_segments":[],"categories_sizes":[],"default_left":[0,0,0,0,0,0,0,0,0,0,0,0,0,0,0,0,0,0,0,0,0,0,0,0,0,0,0,0,0,0,0,0,0,0,0,0,0,0,0,0,0,0,0,0,0,0,0,0,0,0,0,0,0,0,0,0,0,0,0,0,0,0,0],"id":22,"left_children":[1,3,5,7,9,11,13,15,17,19,21,-1,23,-1,-1,-1,25,-1,-1,27,29,31,-1,-1,-1,33,35,37,39,-1,41,-1,-1,43,45,-1,47,-1,-1,49,-1,-1,51,-1,-1,53,-1,-1,55,-1,57,-1,-1,-1,-1,-1,-1,59,-1,61,-1,-1,-1],"loss_changes":[8.113082E11,3.2152692E11,2.0440193E11,5.4658073E10,7.621451E10,7.7930004E10,8.296386E10,2.1517107E10,1.3704064E10,5.3475754E10,1.6174776E10,0E0,3.7032133E10,0E0,0E0,0E0,1.6481288E10,0E0,0E0,3.959467E10,3.4400797E10,2.5958148E10,0E0,0E0,0E0,9.851142E9,1.684607E9,2.723332E9,9.142951E9,0E0,1.3722755E10,0E0,0E0,1.1608883E9,1.5794176E9,0E0,2.9650063E9,0E0,0E0,3.8272548E9,0E0,0E0,3.5522478E9,0E0,0E0,1.4041743E9,0E0,0E0,1.6449004E9,0E0,1.7969905E9,0E0,0E0,0E0,0E0,0E0,0E0,6.480068E8,0E0,1.00080576E9,0E0,0E0,0E0],"parents":[2147483647,0,0,1,1,2,2,3,3,4,4,5,5,6,6,7,7,8,8,9,9,10,10,12,12,16,16,19,19,20,20,21,21,25,25,26,26,27,27,28,28,30,30,33,33,34,34,36,36,39,39,42,42,45,45,48,48,50,50,57,57,59,59],"right_children":[2,4,6,8,10,12,14,16,18,20,22,-1,24,-1,-1,-1,26,-1,-1,28,30,32,-1,-1,-1,34,36,38,40,-1,42,-1,-1,44,46,-1,48,-1,-1,50,-1,-1,52,-1,-1,54,-1,-1,56,-1,58,-1,-1,-1,-1,-1,-1,60,-1,62,-1,-1,-1],"split_conditions":[1.8022696E0,7.716101E-1,5.64344E-1,1.7904045E-1,7.834733E-1,9.565436E-1,7.5610274E-1,-5.313307E-1,-1.024677E-1,1.4172477E-1,1.3265568E-1,-1.6392232E2,6.1916847E-2,1.2283225E3,2.7133428E3,-9.4680383E2,-2.8905663E-1,-2.7679834E2,1.7640178E2,2.4348198E-1,1.2054625E0,9.225883E-1,7.891706E2,4.185927E2,1.2523447E3,-5.325937E-1,-3.377204E-1,1.0255418E-2,1.600833E0,-1.4594107E2,-2.8625882E-1,3.1125503E0,6.4284564E2,-5.374903E-1,9.174213E-2,-4.7022577E2,3.8936684E-1,-5.3382043E2,-2.8021017E2,-4.6398634E-1,-2.7714896E2,2.3034424E2,4.5914263E-1,-7.708838E2,-5.2609296E2,1.4161603E-1,-3.382211E2,-4.4886792E2,1.4871242E0,-6.780702E1,1.1263202E0,4.4933517E2,8.0593335E2,-5.490133E2,-3.7428174E2,-3.051006E2,-1.3511389E2,5.103395E-2,2.4061818E2,4.2537534E-1,1.4121295E2,-4.1610588E1,1.0592059E2],"split_indices":[11,9,1,3,3,2,3,8,4,1,1,0,1,0,0,0,1,0,0,2,10,2,0,0,0,3,0,3,47,0,3,0,0,2,0,0,8,0,0,4,0,0,1,0,0,2,0,0,30,0,2,0,0,0,0,0,0,1,0,3,0,0,0],"split_type":[0,0,0,0,0,0,0,0,0,0,0,0,0,0,0,0,0,0,0,0,0,0,0,0,0,0,0,0,0,0,0,0,0,0,0,0,0,0,0,0,0,0,0,0,0,0,0,0,0,0,0,0,0,0,0,0,0,0,0,0,0,0,0],"sum_hessian":[6.92E2,6.05E2,8.7E1,3.13E2,2.92E2,5.6E1,3.1E1,2.69E2,4.4E1,2.25E2,6.7E1,1.4E1,4.2E1,1.6E1,1.5E1,2.1E1,2.48E2,2.1E1,2.3E1,1.46E2,7.9E1,4.3E1,2.4E1,1.6E1,2.6E1,1.75E2,7.3E1,4.4E1,1.02E2,2.2E1,5.7E1,2E1,2.3E1,5.9E1,1.16E2,1.4E1,5.9E1,2.9E1,1.5E1,8.7E1,1.5E1,2.7E1,3E1,4.4E1,1.5E1,9.8E1,1.8E1,1.5E1,4.4E1,2.6E1,6.1E1,1.5E1,1.5E1,7.8E1,2E1,2.2E1,2.2E1,4.6E1,1.5E1,3E1,1.6E1,1.4E1,1.6E1],"tree_param":{"num_deleted":"0","num_feature":"63","num_nodes":"63","size_leaf_vector":"1"}},{"base_weights":[3.1207083E2,-1.3521836E4,8.895882E4,-3.559388E4,9.090483E3,4.9162266E4,1.3871808E5,-4.3291824E4,-1.2151333E4,-1.6166971E4,2.2607586E4,-1.8294743E2,7.0533E4,1.3024641E3,2.3474468E3,-9.7081024E2,-4.029948E4,-2.4778393E4,-1.2569567E3,-2.7778215E4,3.7682195E3,3.8021042E3,3.143769E4,5.93653E2,1.2943918E3,-5.3333082E4,-3.448969E4,-3.727427E2,-2.2983229E2,4.4493896E1,-9.905175E1,-3.5057406E4,-1.8868903E2,-3.0697763E2,3.711468E2,-2.6530193E3,3.1651227E2,1.5428573E4,3.804537E4,-5.6648605E4,-5.5264703E2,-4.4862438E4,-2.6898979E4,-5.1462366E2,-3.1906735E2,-2.9342987E2,5.415987E3,-4.6474237E0,5.7508905E2,2.1385661E2,4.42034E4,-8.2269135E2,-5.896838E2,-6.732064E2,-4.8796606E2,-4.5405722E2,-2.2790266E4,-5.9454887E1,1.5301056E2,3.848822E4,8.456641E2,-4.3459177E2,-1.8863549E4,7.0958386E2,2.5330154E4,-3.0061807E2,-1.644973E2,2.0161732E2,4.0951187E2],"categories":[],"categories_nodes":[],"categories_segments":[],"categories_sizes":[],"default_left":[0,0,0,0,0,0,0,0,0,0,0,0,0,0,0,0,0,0,0,0,0,0,0,0,0,0,0,0,0,0,0,0,0,0,0,0,0,0,0,0,0,0,0,0,0,0,0,0,0,0,0,0,0,0,0,0,0,0,0,0,0,0,0,0,0,0,0,0,0],"id":23,"left_children":[1,3,5,7,9,11,13,15,17,19,21,-1,23,-1,-1,-1,25,27,29,31,33,35,37,-1,-1,39,41,-1,-1,-1,-1,43,-1,-1,-1,45,-1,47,49,51,-1,53,55,-1,-1,-1,57,-1,-1,-1,59,-1,-1,-1,-1,-1,61,-1,-1,63,-1,-1,65,-1,67,-1,-1,-1,-1],"loss_changes":[8.9029267E11,3.137584E11,1.8724454E11,5.6860082E10,1.0654326E11,7.651841E10,5.0490376E10,1.9008487E10,1.097397E10,2.533516E10,3.358951E10,0E0,2.5431425E10,0E0,0E0,0E0,1.4819492E10,4.8079462E8,1.3142689E9,6.219305E9,2.8009615E10,8.72884E9,1.4011089E10,0E0,0E0,5.9392E7,1.0997416E10,0E0,0E0,0E0,0E0,1.022849E9,0E0,0E0,0E0,8.2391183E9,0E0,1.8863475E10,1.2261753E10,5.947064E8,0E0,1.2611256E9,2.133336E9,0E0,0E0,0E0,2.3554703E9,0E0,0E0,0E0,6.2167286E9,0E0,0E0,0E0,0E0,0E0,1.9365888E9,0E0,0E0,1.1175444E10,0E0,0E0,9.448192E8,0E0,1.5760609E9,0E0,0E0,0E0,0E0],"parents":[2147483647,0,0,1,1,2,2,3,3,4,4,5,5,6,6,7,7,8,8,9,9,10,10,12,12,16,16,17,17,18,18,19,19,20,20,21,21,22,22,25,25,26,26,31,31,35,35,37,37,38,38,39,39,41,41,42,42,46,46,50,50,56,56,59,59,62,62,64,64],"right_children":[2,4,6,8,10,12,14,16,18,20,22,-1,24,-1,-1,-1,26,28,30,32,34,36,38,-1,-1,40,42,-1,-1,-1,-1,44,-1,-1,-1,46,-1,48,50,52,-1,54,56,-1,-1,-1,58,-1,-1,-1,60,-1,-1,-1,-1,-1,62,-1,-1,64,-1,-1,66,-1,68,-1,-1,-1,-1],"split_conditions":[1.8022696E0,-1.5755494E-1,3.4759292E-1,1.4161603E-1,-2.6584777E-1,9.9049896E-1,-2.0442922E-2,-5.313307E-1,-3.4800565E-1,-5.4517392E-2,-1.078635E-1,-1.8294743E2,9.637936E-2,1.3024641E3,2.3474468E3,-9.7081024E2,-1.0085448E-1,-4.4413793E-1,-2.3645595E-1,1.3100643E0,3.8936684E-1,-5.5277593E-2,2.774373E-1,5.93653E2,1.2943918E3,-3.407504E-1,-4.858557E-1,-3.727427E2,-2.2983229E2,4.4493896E1,-9.905175E1,-7.751775E-1,-1.8868903E2,-3.0697763E2,3.711468E2,1.1382147E0,3.1651227E2,-1.11163985E-2,-2.877397E-2,-1.0806394E-1,-5.5264703E2,-4.3562433E-1,-5.374903E-1,-5.1462366E2,-3.1906735E2,-2.9342987E2,-4.6398634E-1,-4.6474237E0,5.7508905E2,2.1385661E2,4.5914263E-1,-8.2269135E2,-5.896838E2,-6.732064E2,-4.8796606E2,-4.5405722E2,7.63504E-1,-5.9454887E1,1.5301056E2,1.2054625E0,8.456641E2,-4.3459177E2,-3.2442603E-1,7.0958386E2,1.8525636E-1,-3.0061807E2,-1.644973E2,2.0161732E2,4.0951187E2],"split_indices":[11,1,1,2,2,2,5,8,1,5,4,0,1,0,0,0,5,1,1,8,8,5,2,0,0,1,1,0,0,0,0,2,0,0,0,35,0,5,1,5,0,2,2,0,0,0,4,0,0,0,1,0,0,0,0,0,43,0,0,10,0,0,1,0,1,0,0,0,0],"split_type":[0,0,0,0,0,0,0,0,0,0,0,0,0,0,0,0,0,0,0,0,0,0,0,0,0,0,0,0,0,0,0,0,0,0,0,0,0,0,0,0,0,0,0,0,0,0,0,0,0,0,0,0,0,0,0,0,0,0,0,0,0,0,0,0,0,0,0,0,0],"sum_hessian":[7.24E2,6.27E2,9.7E1,3.17E2,3.1E2,5.5E1,4.2E1,2.38E2,7.9E1,1.08E2,2.02E2,1.4E1,4.1E1,2.3E1,1.9E1,1.9E1,2.19E2,3.6E1,4.3E1,6.8E1,4E1,6.5E1,1.37E2,2.3E1,1.8E1,6.5E1,1.54E2,2.2E1,1.4E1,2.5E1,1.8E1,4.3E1,2.5E1,1.9E1,2.1E1,5E1,1.5E1,4.1E1,9.6E1,4.7E1,1.8E1,6.3E1,9.1E1,2.9E1,1.4E1,1.4E1,3.6E1,2.7E1,1.4E1,2.2E1,7.4E1,2.8E1,1.9E1,3.1E1,3.2E1,2.9E1,6.2E1,1.4E1,2.2E1,6E1,1.4E1,1.5E1,4.7E1,2.6E1,3.4E1,2.7E1,2E1,1.4E1,2E1],"tree_param":{"num_deleted":"0","num_feature":"63","num_nodes":"69","size_leaf_vector":"1"}},{"base_weights":[4.1066287E2,-1.698107E4,9.111401E4,-3.0506436E4,1.8675316E4,6.8745695E4,1.4768253E5,-4.4303176E4,-1.6696514E4,8.390564E3,4.0041734E4,5.1342527E4,1.3418224E3,1.3919973E3,2.4604385E3,-6.025961E4,-3.4868766E4,-2.4009135E4,5.8108335E3,-2.7633523E3,2.8317375E4,1.3087413E2,5.031321E4,2.705233E2,6.0644938E4,-7.187997E2,-9.957107E2,-3.8150984E4,-2.259905E4,-3.6133734E4,-1.3234382E4,-1.0200949E4,3.529303E2,2.0421693E3,-2.2003021E2,1.20281715E2,5.114625E2,5.069729E2,8.5705023E2,5.8715497E2,9.165499E2,-5.424452E2,-3.8164362E2,-3.9578036E2,-1.5718275E2,-6.2685657E2,-3.1283148E4,-4.053966E2,-9.285136E3,-2.3509972E2,-1.7704605E1,-2.7682883E3,1.7360538E2,-4.6966956E2,-3.0630167E2,-1.7615865E4,-1.5553496E3,-1.229277E2,1.0133398E2,-3.360586E2,-1.3009474E2,-1.3098767E2,5.8794834E1],"categories":[],"categories_nodes":[],"categories_segments":[],"categories_sizes":[],"default_left":[0,0,0,0,0,0,0,0,0,0,0,0,0,0,0,0,0,0,0,0,0,0,0,0,0,0,0,0,0,0,0,0,0,0,0,0,0,0,0,0,0,0,0,0,0,0,0,0,0,0,0,0,0,0,0,0,0,0,0,0,0,0,0],"id":24,"left_children":[1,3,5,7,9,11,13,15,17,19,21,23,-1,-1,-1,25,27,29,31,33,35,-1,37,-1,39,-1,-1,41,43,45,47,49,-1,51,-1,-1,-1,-1,-1,-1,-1,-1,-1,-1,-1,-1,53,-1,55,-1,-1,57,-1,-1,-1,59,61,-1,-1,-1,-1,-1,-1],"loss_changes":[1.1373389E12,2.9234043E11,1.3662716E11,8.290379E10,3.6361994E10,4.4440486E10,3.3182188E10,3.0866997E10,3.6513395E10,2.5416118E10,1.6170893E10,1.5317959E10,0E0,0E0,0E0,2.6582712E9,4.775887E9,2.1338595E10,1.8862359E10,5.019265E9,8.0337736E9,0E0,4.4854313E9,0E0,3.3325548E9,0E0,0E0,1.9707003E9,2.2142116E9,2.9219963E9,5.9987087E9,2.165065E9,0E0,3.053395E9,0E0,0E0,0E0,0E0,0E0,0E0,0E0,0E0,0E0,0E0,0E0,0E0,1.248301E9,0E0,4.802209E9,0E0,0E0,2.8467348E9,0E0,0E0,0E0,1.9656294E9,2.0825558E9,0E0,0E0,0E0,0E0,